,skills,human_fit,gender,selected
0,-6.160503463366412,-3.2667423350234994,1.0,0
1,1.9512894999028467,-4.117315412245338,0.0,0
2,2.2553150305127145,2.801388774370114,1.0,1
3,-7.440053949686321,-3.465629482301358,0.0,0
4,0.33841198982604626,-0.33447089322754264,0.0,1
5,-5.186979645269359,-1.267139191419762,1.0,1
6,2.256250150777464,1.5276397963814556,0.0,1
7,-0.21994395255814725,0.24992752019937203,0.0,0
8,2.223818227490607,1.9044027216165922,0.0,1
9,-0.010070911932501314,0.9323074185464857,1.0,1
10,-3.38325307551323,-3.810838946086735,0.0,0
11,3.3415267790500254,4.504151252568624,1.0,1
12,-4.222399358088659,-3.2989556252300423,0.0,0
13,-4.31407235505514,-2.071900923488224,0.0,0
14,1.7236528386665424,-2.2953160269089166,1.0,0
15,0.8719444704033448,5.3990026611644115,1.0,1
16,1.9309317254686436,1.4624895214409381,1.0,1
17,-1.0822863123469801,5.122811547402183,1.0,1
18,4.235329004470932,2.5909359108728807,1.0,1
19,1.0004719681779846,0.7884481519441711,1.0,1
20,4.230016318047658,-1.009702232869103,0.0,1
21,-4.970607308901409,-6.970661098185951,0.0,0
22,1.6840352926285662,4.406991196417468,0.0,1
23,1.712271213460311,0.6576075327501933,0.0,1
24,-1.7125633284327226,-3.445349670465134,0.0,0
25,-3.110247240520477,-1.950603910655116,0.0,0
26,5.110647144233388,-2.4498972973984134,0.0,1
27,-0.16987566189331016,3.5299123481115884,1.0,1
28,-1.312660971663996,-0.8167874412983978,0.0,0
29,-5.863474034810858,-1.6757037778462514,0.0,0
30,4.669245456501524,-0.2766939111328841,0.0,1
31,0.1222610123848411,2.0616342604071347,0.0,1
32,2.358286165918512,0.5112810454623535,1.0,1
33,-1.3785284841767114,4.232916800657719,1.0,1
34,-2.2932408814931096,3.0076894516215753,1.0,1
35,-2.7624952031197827,-1.3955844495776089,0.0,1
36,4.333641665548602,-1.0098727629190472,0.0,0
37,0.09242236296827988,-0.7260225575142054,1.0,0
38,-0.27397426103722067,-1.885953317697528,0.0,1
39,1.4659537159433689,3.353726090346111,1.0,1
40,1.6140049345975296,0.4273626504033048,1.0,1
41,-0.3146453866835732,-1.5122290041906234,1.0,1
42,7.807238150391435,3.235735076589347,0.0,1
43,-2.4751189864568226,-4.214147792903397,0.0,0
44,-1.8580138420888979,0.6719343643752496,0.0,1
45,0.5298040775304826,2.5441535395226373,1.0,1
46,5.108923257500377,4.543514530071334,1.0,1
47,1.0122290515640318,-0.31601974279229017,1.0,0
48,-5.203841060941003,-1.147133678328646,1.0,0
49,-3.7619200129300285,-0.2810176349449198,0.0,0
50,-0.22025660378530532,-0.7935161892640337,1.0,1
51,-4.91311423697009,-3.1374971422098685,0.0,0
52,4.666881030249623,0.22862403316748425,0.0,1
53,4.704888822599184,0.6009774463079256,0.0,1
54,-4.908358197290428,-3.49209179545828,0.0,0
55,-2.6456130020177104,-3.7435804474394034,0.0,0
56,-5.200076784525772,-1.5001259768344735,1.0,0
57,-1.9388898342134264,2.5345936987648585,1.0,1
58,0.67278610862301,-4.258486981500604,0.0,0
59,1.1367732726344126,6.782475193319561,1.0,1
60,-6.948817509476428,-1.9170439145307177,0.0,0
61,1.8979230290601459,1.0796647186194788,1.0,0
62,3.4443355061264946,2.673592745466667,1.0,1
63,-1.3347676085246598,-2.458369832300627,0.0,0
64,0.895500866997504,1.5400160742038196,1.0,1
65,1.8484916501952973,2.521187849805639,1.0,1
66,-2.0472481941286262,-2.9986789850247337,0.0,0
67,-0.7615050395423721,1.1286477098448207,1.0,0
68,2.4064573173185675,-0.9957826285295475,0.0,0
69,-3.615795633851808,-3.139514227683174,0.0,0
70,4.389366681471646,0.6898718023583703,0.0,1
71,1.0049163608623006,-1.450978746196994,1.0,1
72,-1.8338577996889263,-2.1208813850068666,1.0,0
73,-4.711659831398212,-0.7653179160977115,1.0,0
74,3.8380837376479633,1.3502317641507857,1.0,1
75,4.482324672915643,3.2790458186688474,1.0,1
76,1.7762574122410237,-0.29565369802735586,1.0,0
77,-1.052166636739499,2.7686477851965297,1.0,1
78,-2.3839342759062347,-1.572184165086687,0.0,0
79,-0.9874653338945378,-4.851718916577491,0.0,0
80,4.987370234348996,1.647953527331365,1.0,1
81,-2.6444800732051275,-1.4168254034840142,1.0,0
82,2.733869591754783,1.9645843979051225,1.0,1
83,1.9819427037454755,1.6904216931922722,1.0,1
84,-0.8534600423296674,-3.4289240937237846,0.0,0
85,4.468784900091477,-0.9238624143270309,0.0,0
86,-0.8998213419595662,-2.120931031918864,0.0,0
87,-4.003528352142707,-3.861189589348297,0.0,0
88,0.11371185868012046,3.3598111137518885,1.0,1
89,5.4776810014587305,-1.4675020744987823,1.0,1
90,0.009861822778775231,-1.6516743853636489,1.0,1
91,0.6548459274900953,1.734406072563671,1.0,1
92,-1.0421744880594468,0.12839317931476613,1.0,1
93,-0.7964585002117928,-2.12949362153585,0.0,0
94,-5.331597975723108,-1.459489673403184,1.0,0
95,-6.868430081148621,-4.6828915194777005,0.0,0
96,-4.3751157662765205,-1.6900606738634538,1.0,0
97,0.6803820059736905,-1.1647980125181232,1.0,1
98,-5.36486059725761,-2.742870022826719,0.0,0
99,1.201437852251551,2.8745803490393587,1.0,1
100,0.9885492778337519,0.7962478182636876,1.0,1
101,0.8076782736935408,3.529832451665799,1.0,1
102,-6.38221374932191,-5.538881559788682,0.0,0
103,-0.8140931223052059,-4.6384240208095,0.0,0
104,-2.0452537110393454,0.11718949342571539,1.0,1
105,-4.211168525966663,-2.7553933059333824,1.0,0
106,-6.16312548855244,-4.249659439533487,0.0,0
107,3.092632321551898,-0.9689430355674538,0.0,1
108,-2.242360137503195,0.3831426041485657,0.0,0
109,6.934729684227948,2.203942673605274,0.0,1
110,-4.322905946646365,-0.1042397773698438,1.0,0
111,3.141029644971537,4.591042344439971,1.0,1
112,0.3817695988347949,-4.803857742109106,0.0,0
113,-1.9300531390908868,-4.6058004884579145,0.0,0
114,-6.837652049668764,-2.373456457951285,0.0,0
115,0.7270111113129805,1.446499152370047,0.0,1
116,2.537975550900422,1.9560102308339522,0.0,1
117,1.6661953913213403,1.203561245020896,1.0,1
118,-0.3985156376089256,-1.5710933123566788,0.0,0
119,0.03851512559731507,1.6487358493964135,1.0,0
120,-0.12823327064355694,-1.5230164108410924,0.0,0
121,5.877360542097346,5.168291465585654,0.0,1
122,3.7078676665371697,5.679940350965179,1.0,1
123,-3.26026594618054,-2.9964429877400165,0.0,0
124,-0.6731037847111572,0.7064031041887291,0.0,1
125,1.2911761651306173,-5.21679496030774,0.0,0
126,4.940195021775931,1.8333422914144957,0.0,1
127,0.48965136354253036,0.8356124490794066,1.0,1
128,-2.216089619387393,3.516604327404182,1.0,1
129,-4.1428330235670945,-3.1222072797606826,0.0,0
130,-2.2575155776609477,-0.13801952035652,1.0,0
131,-0.6745255847663376,-1.5487634921000137,1.0,1
132,-1.479720891151385,-2.235286009054343,0.0,0
133,-0.49917492865321145,-2.3514784498482886,0.0,0
134,-0.13482164940892472,-3.3615089862454477,0.0,0
135,-1.938413016322933,1.7493642912521992,1.0,1
136,1.4016861387886623,0.4919780376020437,0.0,1
137,0.7701831681209719,3.8113327838959785,1.0,1
138,4.100237638868773,2.6004996566082306,0.0,1
139,1.9945612119920326,-0.22590288822108917,0.0,1
140,3.9612089792430343,2.8683373367491796,1.0,1
141,-2.8380363163223685,0.3784884806200126,1.0,0
142,5.274015321080867,1.8292393531185553,0.0,1
143,-2.06985702454401,-4.410405876611351,0.0,0
144,0.44259088217302844,-1.7353203173024898,0.0,1
145,4.8815310790595685,1.840817227491956,0.0,1
146,-1.9414334585055115,-3.001210986032132,0.0,0
147,2.147872606115687,-2.049900967716865,0.0,0
148,-0.06076596735982731,0.022015947215013654,1.0,1
149,4.171386574381512,-0.7380543102983359,0.0,0
150,-0.7142455316149536,-2.562045479610326,0.0,0
151,-0.3176266479579928,2.789071304863453,1.0,1
152,2.111763886873547,-0.775661770676656,0.0,0
153,5.864355744275771,7.402425607500185,1.0,1
154,-0.30338635296350525,-1.8114859486080301,0.0,0
155,0.49967081486436626,2.6463036813397154,1.0,1
156,0.5507250801861754,1.2193696334060418,1.0,1
157,0.5064404527606254,6.14683584314488,1.0,1
158,2.154301134863199,-0.626870189716398,0.0,1
159,1.535145176296787,0.07458271704887998,1.0,1
160,-2.845355666373163,0.50061532296046,1.0,0
161,-4.681800031484293,-1.0078781805576789,0.0,0
162,2.8710556013266855,2.554800360252795,0.0,1
163,-3.4254758541530315,-2.6023023803241374,0.0,0
164,1.7180387007568512,0.38216478478953864,1.0,1
165,3.7102637961476397,1.2818346811857615,1.0,1
166,4.195721038325581,4.33668306862168,0.0,1
167,-2.3005152957615627,-2.1962464232276626,0.0,0
168,-4.246792837405825,1.151292374906388,1.0,0
169,0.2541563614896334,0.4849936011433047,0.0,0
170,0.8625359878724832,-2.0860592257936856,0.0,0
171,3.7725730753944493,-1.2416597376863532,0.0,1
172,-6.033027758780222,-2.0088237519931536,0.0,0
173,-3.1018166339529607,-0.46695120626853304,0.0,0
174,2.5057079657502923,5.305374705669778,1.0,1
175,4.525319069379424,0.25344984697925454,0.0,1
176,-3.7642662679577796,-3.199179044644561,1.0,0
177,-8.508343431814486,-4.183305630613931,0.0,0
178,-2.3982991570197916,4.400614059790747,1.0,1
179,3.3251107239599347,1.1896152726775853,1.0,1
180,-2.4463533784579656,-3.021350899013951,0.0,0
181,-0.4186021333498835,2.094543959362831,1.0,1
182,-3.2866468734757843,-1.1035173213539968,1.0,0
183,-4.877234723055174,-4.126853232569294,0.0,0
184,1.3062783729610308,-0.7987426460176272,1.0,1
185,0.49903023509512145,-0.6883496704361887,1.0,0
186,0.6831871336995858,-0.7850770629435306,0.0,1
187,-3.6260549812846694,-2.9741224529737993,0.0,0
188,-0.8355950255139386,-0.9485961186267784,1.0,0
189,-7.893545337186223,-1.4990676413289528,1.0,0
190,-0.42000551699142497,1.762353857196201,1.0,1
191,0.7797295741902213,2.4735747016939515,1.0,1
192,1.427960704519796,-3.1694383338852816,0.0,1
193,-6.351392186996458,-3.733892091506382,0.0,0
194,-7.166528811093844,-2.50656215974671,0.0,0
195,0.48711063208416183,0.22922601626393213,0.0,1
196,-3.7760234302646376,-2.048482026748541,0.0,0
197,-0.18497826468397838,1.0844302231457712,0.0,1
198,-3.0396375299612197,-3.7810188427945888,0.0,0
199,1.268014846064421,2.7867876681697568,1.0,1
200,-3.177597294271659,1.2366195095664907,1.0,1
201,0.4960236571050136,1.9610256606445489,1.0,1
202,-2.6880147948298436,-0.2678544258614628,1.0,1
203,-0.9108022576814534,-3.8717613391996792,0.0,0
204,-0.863126512419452,1.0901537048696106,1.0,1
205,2.2761378695988195,6.666520602284928,1.0,1
206,1.0522332384293307,0.5649345001086967,1.0,0
207,2.2263210401102014,1.8702781904748451,1.0,1
208,-1.7373206121914733,-3.0094185702401184,0.0,0
209,2.0616898434419966,2.4943077961241347,1.0,1
210,1.1346671863834992,2.034487903828551,1.0,1
211,-7.002196509045521,-3.4621935153069456,0.0,0
212,-4.990471179682139,-3.448197363548478,0.0,0
213,3.0486769968715706,4.031325932665889,1.0,1
214,1.342401049044666,1.614335565535594,1.0,1
215,-0.36868433406479006,-3.459251073189203,0.0,0
216,-6.281553806194624,-1.1985736668744353,1.0,0
217,-0.2030630093051342,-1.2332501025865596,0.0,0
218,2.6643641290174385,-3.519707568597587,0.0,0
219,2.0294529748595007,-4.8718874459908434,0.0,0
220,-4.067561060354386,0.09744878268720258,1.0,0
221,1.2024143714828068,5.746473494396176,1.0,1
222,0.1126991379854072,1.7884631454155007,1.0,0
223,-0.8779726405014445,0.2841452105371749,0.0,0
224,-1.4105391650709387,-4.177398518355947,0.0,0
225,-3.720958096191934,-1.2161724172075083,0.0,0
226,-3.939299177441977,0.5630064501187144,1.0,0
227,3.141310714707454,-2.730803621165509,0.0,0
228,-0.1322651337971954,5.399984002536306,1.0,1
229,0.35960507134197917,-0.36523281560429166,0.0,0
230,0.34472976600425387,-0.9956717960824022,0.0,0
231,-1.2555368755234757,0.2923262357080274,0.0,0
232,0.7927472172614618,4.4872850804263065,1.0,1
233,-3.3548816529158287,-1.1111744291441792,0.0,0
234,-3.5563701756731225,-2.5253588045317796,0.0,0
235,-0.3825363208078105,3.504131364273067,1.0,1
236,2.7180970844447288,0.9982410293183546,1.0,0
237,1.6263328600627065,-2.326083268851021,0.0,0
238,-3.136779084933141,-0.004359880688005191,1.0,0
239,3.71351000622611,-1.3277040285610289,0.0,1
240,-3.7697935764312422,-0.6836702071286787,1.0,0
241,-2.7903210115837416,0.0767095477879316,1.0,0
242,0.20956073284599253,0.8852922671010415,0.0,1
243,4.154361229107399,3.586884907683041,1.0,1
244,-1.7486521489073854,1.174444826614665,1.0,1
245,-1.3282395908745326,-3.6053242629610223,0.0,0
246,2.2890082731371635,3.6435997375416385,1.0,1
247,1.719870451275853,1.143655989657916,1.0,1
248,-3.771245687319449,-0.6815145808405794,1.0,0
249,2.2469152340785836,2.082965990901561,1.0,1
250,1.0172979121320422,4.84741475905704,1.0,1
251,0.29061166922417225,-2.022632362219926,0.0,0
252,-3.3624100018914387,1.1314785484376007,1.0,1
253,-6.501232974714133,-0.07784965678631606,1.0,0
254,3.4527902171496287,2.4993863790623037,1.0,1
255,1.9838158281141602,0.9454947660558755,0.0,1
256,2.0903841970913914,-0.5881351429364936,0.0,0
257,-0.45188788028715,-0.2256352347711763,0.0,1
258,0.06687209826459783,1.464485226090833,1.0,0
259,1.125662509733201,6.155912218759193,1.0,1
260,1.028587111503728,-3.207467512150483,0.0,0
261,2.0166003327591024,1.191501627746331,1.0,1
262,0.879656959001919,4.146586939802822,1.0,1
263,-1.8638342594327533,-4.035406542375945,0.0,0
264,-4.481633240136837,-3.3726108284094183,0.0,0
265,0.48283887416737903,-1.3856387611272454,0.0,0
266,3.460060254650303,2.33381558233893,1.0,1
267,-3.9058489560511216,-6.741259629627631,0.0,0
268,-1.6737712242575764,-2.667190274867312,0.0,0
269,-0.44017390742687934,-0.16687356198430736,1.0,0
270,2.914501720771832,1.3036841294585737,1.0,1
271,-0.2993510513713995,-2.5463452685994294,0.0,0
272,-1.8564678390997236,-0.41980682321818286,1.0,0
273,-2.6045430487295143,-0.5053445333573432,1.0,1
274,-0.7001993730813194,-3.07891605781385,0.0,0
275,2.757330329239953,4.920135688089569,1.0,1
276,-5.654351853730514,-2.1103208311446684,0.0,0
277,1.5529038857526039,-1.082956803984009,1.0,1
278,2.6739919690071208,-1.4185409523993346,0.0,0
279,-2.504707831656316,-3.2319090911206816,1.0,0
280,0.8336222916765743,0.05762821983959099,0.0,1
281,3.4998867864018566,-1.7320308164873675,0.0,1
282,-1.196499847610958,-1.1366820263841655,1.0,0
283,1.3556475584769743,-0.7721301608160287,0.0,0
284,1.484756830258998,3.6366204203174974,1.0,1
285,4.144731922453008,0.5246150560009162,0.0,1
286,-1.4980396584515958,5.555135485652837,1.0,1
287,-2.4151230284013545,-2.3468791886500044,0.0,0
288,1.553076130197371,3.8697035494120806,1.0,1
289,0.8167993838887604,-1.646312838644567,0.0,0
290,0.17349655768284444,-0.16052593613322852,0.0,1
291,-3.5404445335439454,-4.982288974948043,0.0,0
292,-1.1091547897621101,2.0103150924637463,1.0,1
293,-8.20356281844002,-0.8447789666665342,1.0,0
294,0.9850887988249803,5.843084801727327,1.0,1
295,3.875646437531546,1.1693496246227837,0.0,1
296,3.614541296532501,-1.6793481704821684,0.0,0
297,1.7188698640069842,-0.40165469034941603,0.0,1
298,-8.084803373680963,-3.9995813199466457,0.0,0
299,0.43433645066686033,4.470695054916033,1.0,1
300,5.089644939536006,1.8693234416053395,0.0,1
301,1.5155286675494521,-0.8530811331119001,1.0,1
302,2.648919238095733,-1.5322966632930828,0.0,1
303,3.891122967996349,0.017613307371435072,0.0,1
304,1.5534605239124308,1.8136103181698366,1.0,1
305,-3.8045370412564994,-0.6486939258738902,1.0,0
306,3.220273866129621,2.01630374111131,1.0,1
307,-5.012741900165256,-3.1553576036865234,1.0,0
308,-5.791640142543005,-1.0432101270530638,1.0,0
309,-4.581389884342952,-2.3457935369680105,0.0,0
310,-2.4079584651986314,0.14219624066341963,1.0,0
311,-3.4439221964639213,-2.1867753735344735,0.0,0
312,-1.8661041937596845,0.34150082994154074,1.0,0
313,-3.458553339643659,-2.7039931814117435,0.0,0
314,1.1015268073546336,2.74159627490723,1.0,1
315,-0.7336650627973456,-3.421042121859614,0.0,0
316,-2.4268846745065664,-3.327104740017509,0.0,0
317,4.610041512987077,2.135604384161822,0.0,1
318,3.0117974459033103,-1.927124612959938,0.0,0
319,3.204610667239945,-0.2166359274207883,1.0,1
320,-4.604252395368201,-0.06976126961910589,1.0,0
321,3.3605911660218055,4.634398335448701,1.0,1
322,-5.829771434403041,-2.305207103357957,0.0,0
323,0.9299779485585304,-0.7522488501589384,0.0,0
324,-3.3878703487901194,-3.9995316619761834,0.0,0
325,3.7003818884639577,1.7113193112850729,0.0,1
326,3.5683276430771516,-0.34956674564627876,0.0,0
327,-1.0258165670333277,-2.3214262263055216,0.0,0
328,0.7457608733924928,-0.6526626467154446,0.0,0
329,-0.40250812674640546,-1.570652032937699,1.0,0
330,1.0905272227305676,1.0839415853891377,1.0,1
331,2.438778359118134,0.5013889395038038,1.0,1
332,2.019049190284446,2.7883531084480087,1.0,1
333,-3.90410840467429,-3.3381964308332797,0.0,0
334,3.30798615190139,-2.265374940349637,0.0,1
335,-0.9718792550332183,0.46574591885805017,1.0,0
336,-0.5881894474699856,-3.470058152074408,0.0,0
337,-3.0919868898762486,-1.9646581144055337,0.0,0
338,-0.36067372585833857,2.2654322983412762,1.0,1
339,4.823358658616126,3.736847638973879,1.0,1
340,0.14650189249436574,-6.565379664250071,0.0,0
341,2.9435880026545815,3.316174011562092,1.0,1
342,-1.386590165283185,4.039722088736125,1.0,1
343,-2.056188685430228,-0.787593288667461,0.0,0
344,1.535292680618345,-4.27871539356234,0.0,0
345,-0.9062369538626869,4.055450475692558,1.0,1
346,1.8346887898947013,0.9847227444531141,0.0,1
347,0.9517528370230477,2.06410775967863,1.0,1
348,2.3643988916750938,4.166215151144945,1.0,1
349,-0.8656303505101688,-4.350389549745828,0.0,0
350,-0.554483077815968,-1.6759977902273895,0.0,0
351,-2.434713257120247,-1.6830749273754837,1.0,0
352,4.194931995836769,1.6468314922415752,1.0,1
353,5.3031173491273185,4.294265863160651,0.0,1
354,6.047871629141494,1.9528613146995568,0.0,1
355,0.3327259817330601,-4.002293781274238,0.0,0
356,0.21948868280392597,0.3242748631539949,1.0,1
357,1.1207654295721976,3.3730625729175676,1.0,1
358,-2.091670878162601,-1.906899682884217,0.0,0
359,4.173262542946219,0.44565974481093096,0.0,1
360,-4.913845770344853,-4.0398631166601735,0.0,0
361,2.398643276403499,-0.0630595333233166,0.0,1
362,0.002609485030398151,2.2908056763158022,1.0,1
363,1.7993763518515111,-2.350844796900611,0.0,0
364,1.2481683895421547,3.3392195228144015,1.0,1
365,-1.91361624166848,-1.840736461526551,0.0,0
366,-7.176423588242589,-2.028284339471613,1.0,0
367,4.559689463715335,3.6638211551347037,1.0,1
368,0.025493918751054334,4.003704621491547,1.0,1
369,-1.3525420035893112,-2.4180133876499674,0.0,0
370,0.843171075202918,-4.544244757814284,0.0,0
371,-2.000101087909446,0.12608651704610763,0.0,1
372,-3.277598378503278,-1.0470061861389013,0.0,0
373,0.08556226719543147,-0.2672161286859127,1.0,0
374,-1.443046803565173,-0.1949349029252343,1.0,0
375,-2.328930272272653,-0.7344292122745433,1.0,1
376,0.18852669012776158,-0.9587287293848639,1.0,0
377,4.767688574048033,4.877818590080541,1.0,1
378,5.182391241563442,0.17915194065168483,1.0,1
379,-1.5749901168044385,-1.0639320711943565,0.0,0
380,0.9611210041521732,0.915615459248613,0.0,1
381,-7.571596489189885,-3.831185426197685,0.0,0
382,-7.3025558030435,-3.0308979970838346,0.0,0
383,-0.7467305087822766,0.16679301739378527,1.0,0
384,-0.23256487633210865,2.521970515362546,1.0,1
385,-9.560197991340086,-4.352926090094828,0.0,0
386,-1.3011269567753398,-0.4768803311051424,0.0,1
387,-3.8671202242573632,-1.3990478246485092,0.0,0
388,1.9211220682897912,-0.5308375762571955,0.0,0
389,6.995549469912268,3.5178495812024546,0.0,1
390,-9.026683761339246,-3.073429885484158,0.0,0
391,-6.665908516812684,-1.1443911077533144,1.0,0
392,3.91671559416102,-3.2017139161499495,0.0,1
393,3.5990105964462353,1.5845877165473208,1.0,1
394,1.7216153632726137,1.8419116269713047,1.0,1
395,1.8682289363682014,-0.6435717930276335,0.0,0
396,3.084769845767199,-0.3210496086551604,0.0,1
397,2.568169197988964,0.5606765401168452,1.0,1
398,2.5410370790636705,0.9559996488929423,0.0,1
399,-5.423365018219231,-4.308670538216189,0.0,0
400,1.2312577224409869,-3.309040061794119,0.0,0
401,-2.30194603241215,0.0896926127385207,1.0,0
402,-4.204766295448916,-0.8848207660310063,0.0,0
403,-4.19684982381923,-4.893416922532637,0.0,0
404,4.813981283017858,-0.4776736833706656,1.0,1
405,4.180295734376042,1.7045120960603568,0.0,1
406,-2.6677475164888893,-3.1367711512843472,0.0,0
407,1.0294016717642502,4.422673998471291,1.0,1
408,-3.4754314079446997,-1.827344838921336,0.0,0
409,-2.564072065186515,-1.0941242586931974,1.0,0
410,-5.494909979248163,-0.9319554683167672,0.0,0
411,3.018351458935705,1.9510081823847942,1.0,1
412,1.8020866523170511,4.000207408679261,1.0,1
413,0.6352587017398417,-0.5939578344892831,1.0,0
414,0.35587356344365273,1.8296603982213409,1.0,1
415,-2.838162322528908,-2.2557958028901357,0.0,0
416,-0.45315627532556824,-4.146990880228669,0.0,0
417,-6.338711512317408,-5.874393888754474,0.0,0
418,2.136724963957934,1.0512811489569065,1.0,1
419,3.0773533847783536,2.0753258206344403,0.0,1
420,-1.5702453216765813,-1.0878269174748505,0.0,0
421,3.0790865364044695,-4.069006733491362,0.0,0
422,2.843676575191858,1.3819141204936054,1.0,0
423,0.9369585261523228,1.8867632771547562,1.0,1
424,-2.84474897592772,-1.1917229329744523,0.0,1
425,4.725619479337359,1.1564060546394312,0.0,1
426,2.5453070101483775,5.215214151386059,1.0,1
427,3.307091609260042,-1.5210055529396767,0.0,0
428,-0.08385576275596973,0.2304818363503649,1.0,1
429,0.9684185890936103,0.7612236972933193,1.0,1
430,-3.409531977542211,-1.194227443588563,1.0,0
431,0.3223169266540644,0.22519937186874772,1.0,0
432,1.8480999226556951,4.853628737780573,1.0,1
433,-0.31521111962085957,2.1957654327846408,1.0,1
434,-3.242777834270093,-2.906929880120533,0.0,0
435,-6.869030721270678,-4.360867748666738,0.0,0
436,-3.177197345800325,-3.6199895900263206,0.0,0
437,4.6147274075521985,3.5558551329375545,0.0,1
438,1.6107519183251617,-1.9838947858384106,0.0,0
439,-4.567817398272983,-1.4235530853604899,1.0,0
440,-4.0446685822710435,0.718842379654014,1.0,0
441,-4.591575646167698,-0.7073897525314443,1.0,0
442,4.490980962714021,2.494479308944169,0.0,1
443,-9.39987927894091,-2.133536309209853,1.0,0
444,0.926594817447026,-1.8532161074151698,1.0,1
445,-1.7045826338919112,-3.9777538478501486,0.0,0
446,1.431756399951718,-2.041250848314443,0.0,0
447,1.0116673133147804,-0.8386859478137954,0.0,1
448,2.0584053246700535,1.286853721323304,0.0,1
449,-1.4450209476049487,-1.084060251395305,0.0,0
450,-5.045126876187055,1.4689345401083127,1.0,0
451,1.6325663497595821,1.4212872028499435,1.0,1
452,-2.1854276929393377,-2.1479718719647716,0.0,0
453,1.4992199540782987,3.3218272830338904,1.0,1
454,-1.3935917885049036,-0.7481455722425774,0.0,0
455,2.287551185008464,1.5297392961513796,0.0,1
456,2.4334264930183402,0.8434875414846896,0.0,1
457,-2.0373685104849786,0.8160171692920799,1.0,1
458,-1.066647498153618,5.456480600264387,1.0,1
459,3.4479484308506763,0.0949347246936274,1.0,1
460,0.911170341546468,6.525099729009297,1.0,1
461,-4.226751538230563,-1.554388021279495,0.0,0
462,2.4481994716860127,2.692814758987182,1.0,1
463,-1.2996719512053718,6.03323139786319,1.0,1
464,3.707626507636275,0.5082238377032242,0.0,1
465,-2.5510686390923856,-2.9400638973122604,0.0,0
466,1.662341456396652,-2.794608573976939,0.0,1
467,2.1563055878566995,3.205078398126764,1.0,1
468,-4.162212974319586,-3.1363540433940864,0.0,0
469,-1.7095413995170623,-5.084561291529064,0.0,1
470,2.1775763476553096,-2.0595154005577294,0.0,1
471,-1.9293475285135533,1.5052961408384251,1.0,1
472,-5.038549844350748,-5.360529597240925,0.0,0
473,-1.796584207937878,-2.804457474998366,0.0,0
474,3.3230083766999208,1.5882181581164179,1.0,1
475,1.378587931113878,-3.296985017360897,0.0,0
476,-0.2773795685904634,2.163145139257866,1.0,1
477,1.7220130956206274,4.014888840379831,1.0,1
478,2.970843170913227,2.1398490091097546,1.0,1
479,-6.567140289037004,-2.9474127850064833,0.0,0
480,4.921557383232107,3.781292608884158,1.0,1
481,-1.923723106002221,-2.4243433921257638,0.0,0
482,-3.730393166432702,-1.4609787519180821,0.0,0
483,2.9526163786557427,0.7458879785507149,0.0,1
484,-0.3859721561785454,3.7504102889396975,1.0,1
485,2.7914125049829464,3.9812145455787324,1.0,1
486,5.514612308354538,7.396281163064111,1.0,1
487,6.022889832048862,-1.2965410562489716,0.0,1
488,-9.32319943070926,-4.223942891928177,0.0,0
489,-2.7722940207839306,0.8048856981599877,1.0,0
490,-1.4972766404492586,-1.3510084761352412,0.0,0
491,-1.7110950035053907,-2.0893769648457634,0.0,0
492,-4.80247218125286,-2.7852773620619087,0.0,0
493,-2.6229693767022284,-2.9505828520806308,0.0,0
494,1.266040596544246,-2.570052124153272,0.0,1
495,-7.492209407327036,0.21069056437525768,1.0,0
496,2.2204937996828518,-2.3619164327919635,0.0,0
497,1.0790629271780774,-0.022816613845521694,0.0,1
498,0.32445911452078313,-4.90237408911473,0.0,0
499,2.355087075938845,3.449846168424804,1.0,1
500,2.5861962904054914,2.6496543363395375,1.0,1
501,4.567349171806013,0.2981573593191067,0.0,1
502,5.435873123597753,4.585167403768352,0.0,1
503,-1.2587814065689837,-3.7597964636012926,0.0,0
504,-7.147688618576732,-2.21665393011991,1.0,0
505,-5.348572312496422,-5.54522963127534,0.0,0
506,-0.27713055337180803,0.9603054827780111,1.0,1
507,4.062716266638242,2.0986112750637913,1.0,1
508,4.457680006397352,0.3828972606453631,0.0,1
509,-4.763098370226771,-3.2332504805907396,0.0,0
510,1.5216751985782635,1.027442209173454,1.0,1
511,2.5542580413420315,4.305524200224383,1.0,1
512,2.905388340982472,3.1321598504127044,1.0,1
513,-1.3892098837347278,0.13209225115508794,1.0,0
514,1.1440428726061553,1.3295445098997734,1.0,1
515,4.672646143528764,4.465342711501185,0.0,1
516,3.092065091719994,3.180589858799202,1.0,1
517,-2.1448747840702884,-1.7582430921213439,0.0,0
518,2.3489340954625315,3.1327368225182757,1.0,1
519,-2.5053169967050426,2.605017950317569,1.0,1
520,2.0657349973677905,3.6783531996867547,1.0,1
521,2.0858471267764034,0.8455499471197911,1.0,1
522,-3.8327878377989055,-1.5535744483476948,0.0,0
523,0.3943492025708497,0.014812295516295704,0.0,1
524,3.908711690261997,5.278921866158244,1.0,1
525,2.5238982810300286,4.286771989545111,1.0,1
526,7.341329192412307,0.7369806962235725,0.0,1
527,5.078446572849035,4.372650640209999,1.0,1
528,1.7486918552416681,-0.1298584633879778,0.0,1
529,-1.2297445962652025,-1.9280148341353878,0.0,0
530,-5.6604738220178055,-3.0929949875908287,0.0,0
531,0.5082180466870829,3.807520676736729,1.0,1
532,1.8215249335434733,-1.0993608343091923,0.0,0
533,-5.5317345466214505,-2.104851508635976,0.0,0
534,3.358604476653743,2.543239529538994,1.0,1
535,1.107005009675711,-1.675275777515663,0.0,0
536,-0.9851959396902954,-0.12525320908875637,1.0,1
537,-2.4651186165154875,-2.654665082013815,0.0,0
538,-0.35141239748381103,0.09074257239525463,1.0,1
539,-3.619371874389259,-1.4727875153790213,1.0,0
540,5.259966289159701,3.12186021289681,1.0,1
541,4.879230673829933,-1.8016888950969112,1.0,0
542,2.589412694700044,1.9646592706479165,1.0,1
543,0.18200679413634502,-3.0727339811139203,0.0,0
544,-0.8730729764141605,2.445811910287376,1.0,0
545,1.3959427570929477,4.763902621455299,1.0,1
546,-3.737105210978909,-2.141335852730921,0.0,0
547,0.7294212277210246,2.191303888279988,0.0,1
548,4.313689111599585,4.267212942934258,0.0,1
549,0.055426543522897775,-2.0023237670156337,0.0,1
550,1.5607128625937943,-4.635671748809287,0.0,0
551,3.694483273145628,0.27578217008109696,0.0,1
552,2.80282037956829,2.909136060122158,1.0,1
553,0.11761854126557081,-2.6217156401678974,0.0,0
554,0.4304070772523554,4.653289256650817,1.0,1
555,0.3150533542401077,-0.1344838063349969,1.0,1
556,3.417396826666403,-3.8536740082567027,0.0,0
557,-0.09879637084857174,-4.30518471926996,0.0,0
558,2.3504441034902017,0.7873022158165022,1.0,1
559,-1.381474324441252,-3.5671152754305107,0.0,0
560,0.4084933279395577,2.073776127659113,1.0,1
561,5.83602526682564,3.555489684161555,0.0,1
562,-1.074718040304548,1.8815859681353433,1.0,1
563,1.1497055005559471,5.024534697254893,1.0,1
564,-0.6634120039703193,-2.765064167700749,0.0,0
565,-0.38010091223003717,-0.5062537086535872,0.0,0
566,0.4810980729614238,-1.792750971510586,0.0,0
567,-3.9274965290800568,0.40499473887466486,0.0,0
568,0.46696963135157343,1.904789700600184,1.0,1
569,-3.683034548970401,3.4842921285379207,1.0,1
570,0.29355295968677675,7.592332590398157,1.0,1
571,-0.2540432031655646,-0.510640096320409,0.0,1
572,-0.1709001510289183,-1.622344925540316,0.0,1
573,-2.9543969073430496,-4.082136118942396,0.0,0
574,1.3860510375355097,0.6386828006487735,0.0,1
575,-2.900415488777538,-1.265939568683006,0.0,0
576,1.8245111251306567,1.7337944368899794,1.0,0
577,-6.512076489332699,-1.0574556215646673,1.0,0
578,0.31796683467952946,2.9644334281688405,1.0,1
579,0.5898413677476322,0.9381774937580776,1.0,1
580,2.9799601537274976,3.550740558302172,1.0,1
581,1.708380564306009,-1.3923323873369613,0.0,0
582,1.1354630881370893,4.222430337700587,1.0,1
583,2.405263518976019,1.8247029575621632,0.0,1
584,2.0547683948361195,-2.126270566956511,0.0,0
585,2.2440018789613845,2.426710220890696,1.0,1
586,2.86893084749828,1.12374374003126,1.0,1
587,0.7370391956819158,-2.5298796386327895,0.0,0
588,0.13889700986228304,4.79292459385886,1.0,1
589,3.4144454613309905,4.297087886832804,1.0,1
590,3.0359027362876736,-2.6604503378276476,0.0,0
591,0.07572093360566212,-1.7025659583111368,0.0,0
592,-0.5079264335845115,-2.476672526662666,0.0,0
593,-3.639701010878998,1.2571701719538382,1.0,0
594,-2.5281108726367356,0.876509779392193,1.0,0
595,4.1857504798510075,3.2414299369137094,1.0,1
596,-2.594867071507305,-0.5429951202262664,0.0,0
597,3.4332608497206376,2.7078347539689087,1.0,1
598,0.7701290853956517,2.9269207983048275,1.0,1
599,1.63713535205585,-2.075054767630261,0.0,0
600,-5.6858489147300695,-2.753178693996907,0.0,0
601,-3.715005516006154,-5.2231974388649975,0.0,0
602,-7.307734118913002,-1.610470074127579,0.0,0
603,-5.526974141580764,-3.3360807169164164,0.0,0
604,7.377702542453837,6.130348939507475,0.0,1
605,4.764079870582185,-1.3604406836751926,0.0,1
606,-6.397082053347428,-2.0061559915431677,1.0,0
607,-6.1936710369016845,-1.8924114204948843,1.0,0
608,-1.5832712242774987,-0.6700431990430538,1.0,1
609,3.9542511163319003,0.2918432124501109,1.0,1
610,0.1808819413053384,1.0612789616590657,1.0,1
611,-0.4445091558135217,0.029783858119246664,0.0,1
612,4.012633315371672,0.36538014662073115,0.0,1
613,3.0247745437909037,0.09934037280218222,1.0,1
614,-3.6568677490576027,-4.3741023160100765,0.0,0
615,1.6520418149474405,1.2803816034775906,1.0,1
616,5.152481414122168,2.4115258812946054,1.0,0
617,2.566229294826657,1.5287383981834561,0.0,1
618,-6.263516736482894,-3.5393719291285475,0.0,0
619,2.4682493294645536,-2.17503627391513,0.0,0
620,1.9755249380079505,1.483743844188473,1.0,1
621,-0.4029503557221319,-2.7476864078342067,0.0,0
622,-0.8221519923813099,1.8444308216486365,1.0,1
623,4.6478407672861675,-0.5938919353468233,0.0,1
624,1.9963161092889283,-1.349540291211147,0.0,0
625,-2.1484692540376757,1.6309979469165017,1.0,1
626,-0.2544553696870966,2.1524671715591506,1.0,1
627,-6.794424940899209,-2.741890721092573,0.0,0
628,-1.3205738732051455,-0.019116683498491494,1.0,1
629,3.771429310313362,1.3478740415154244,1.0,1
630,2.725313963468119,7.025588817409516,1.0,1
631,-3.0688413168615956,-1.791692219472121,0.0,0
632,0.5147704333302523,0.9647635844159577,1.0,1
633,-5.5545906446189,-2.6400947782214095,0.0,0
634,3.489457500082679,-0.423479881731069,0.0,1
635,-2.9722951640523343,-3.21649197622307,0.0,0
636,-0.7323095484523696,7.067351278541259,1.0,1
637,4.587197754215756,4.527270869802095,0.0,1
638,-1.0531880434764784,0.7707316698283917,1.0,1
639,0.9005089308636376,-2.0492102808255592,0.0,0
640,-5.842634312215529,-1.573489467925627,1.0,0
641,-0.8644090826158333,0.8093997825725379,1.0,0
642,1.5252164503307106,6.514996097608042,1.0,1
643,-6.131963236839619,1.7370830345582757,1.0,1
644,2.039287486570443,6.2463335545656165,1.0,1
645,5.391301302478247,-0.3483914705276252,0.0,1
646,-3.4693373222181805,-5.138024806472838,0.0,0
647,3.1162675300694076,-0.32151863154648597,0.0,1
648,-3.3308600682839544,-4.416711460867599,0.0,0
649,1.169306768057035,1.011886708830052,1.0,1
650,0.7964559650535326,0.06975267842859623,1.0,0
651,-3.4935698999613978,-0.35471079785187243,1.0,0
652,-3.9354703814465983,0.8153290990970268,1.0,0
653,-4.4872682475607535,0.22400432501941303,1.0,0
654,-2.3012926605028867,-0.6206983725287303,1.0,0
655,2.3003285582490163,-0.3466004084080523,1.0,0
656,-2.1657169895521573,-2.7997392859300385,0.0,0
657,-3.6674277990911843,-2.4806019149815346,0.0,0
658,2.167586496739849,2.4860313761352137,1.0,1
659,0.20473537591805813,1.0327104326095158,0.0,1
660,-0.5873462688979039,3.0897909758474693,1.0,0
661,-0.9264498238764547,1.0737843958734232,1.0,0
662,5.486586907535564,3.5547238541916117,0.0,1
663,-2.28335069650725,-2.131003587526361,0.0,0
664,2.979742898262541,3.628386963918399,1.0,1
665,3.6537508791025095,0.512764777812174,0.0,1
666,0.8278270544013857,-6.480427744612009,0.0,0
667,-4.369355601457843,-3.169864383859175,0.0,0
668,1.882579282626957,1.2679542566241941,1.0,1
669,6.881729202206191,3.4495468439591708,0.0,1
670,-1.20185191354555,-2.9721771643253594,0.0,0
671,-2.3880810800325554,-0.46998070854841534,0.0,0
672,3.15432723950129,4.55410518182998,1.0,1
673,-0.8571342954897343,1.4829531813404286,1.0,1
674,1.6616059354242738,-1.7979464270650558,0.0,0
675,-6.126520587890958,-3.2985749395754342,0.0,0
676,2.8512432932991767,3.420445701258031,0.0,1
677,3.0145728678070087,4.137592058263909,1.0,1
678,-8.543735798709854,-1.4139868075869664,1.0,0
679,2.0504470099202035,-2.692787981356922,0.0,1
680,1.1503735005539684,0.6152828139197566,0.0,1
681,-0.33396669718718686,2.4888367085585994,1.0,1
682,1.2426856646880702,-4.545485278977725,0.0,0
683,4.031963322212283,3.161311582041333,1.0,1
684,2.707497966583646,6.909104856421145,1.0,1
685,-1.0850711126089942,-2.9589577374611835,0.0,0
686,-6.872837007642858,-0.9390191755570478,1.0,0
687,2.909854495070177,-1.9968774320979557,1.0,1
688,-1.6325072650774162,-2.031163916405597,0.0,0
689,0.9643906874849688,5.910966020399579,1.0,1
690,2.957347193137532,2.3182574381228322,0.0,1
691,5.017224058046299,4.083276425863845,1.0,1
692,-0.08736651401149831,1.4793143089405905,1.0,0
693,-7.410402221554258,-0.8472543099636851,1.0,0
694,5.941740281794315,1.1908107904294267,0.0,1
695,-8.84582939006792,-0.39800151181646637,1.0,0
696,-2.5128653717323908,-3.2228012327056335,0.0,0
697,5.495611902364748,0.11291068901889378,0.0,0
698,6.946866000293353,5.149546209489101,1.0,1
699,2.3938015200982896,1.567302461848333,0.0,1
700,4.273483576936966,7.0639697834666455,1.0,1
701,0.689918606499099,1.380166246684468,1.0,1
702,-5.9080059691258295,-3.73525269611462,0.0,0
703,-4.2576171737160555,-1.0215255705746153,1.0,0
704,-1.7942908093065295,-2.5050048784141357,0.0,0
705,-4.173455253057196,0.28059716470278984,1.0,0
706,0.5801778418062797,-4.737779291331023,0.0,0
707,-6.724872820956112,-1.513107139076101,1.0,0
708,-0.6419047240782134,-2.3040550689211887,0.0,0
709,6.423371133210631,-3.561214758528946,0.0,0
710,0.5978637312205874,2.1719307938074977,0.0,0
711,-3.8504730595685714,-5.004769685239845,0.0,0
712,5.482783907274572,4.4201657159708585,1.0,1
713,5.759015157046149,3.4704682609772384,0.0,1
714,-0.6892742642607168,-2.5986112724363837,0.0,0
715,-6.04165838785777,0.3397000281936058,1.0,0
716,-1.6611717445272052,-1.6166381217482457,0.0,0
717,-1.2533118862710233,0.09330423295220136,0.0,0
718,0.02469437778115724,-3.5316365554513944,0.0,0
719,0.6841727467603413,-1.8920148171433493,0.0,0
720,0.8066703631468488,0.5402918129332517,1.0,1
721,-4.545883981712029,-0.25633400151603825,1.0,0
722,3.142731772851761,2.537299374683372,0.0,1
723,7.555444427735767,1.8520695845534225,0.0,1
724,-3.8406309310851494,-0.1543801002362899,1.0,0
725,-5.973041294329317,-1.8740470212001072,0.0,0
726,-0.8889143506080015,3.4393179673310534,1.0,1
727,-1.8273317807281981,-1.9052550053491566,0.0,0
728,-0.503402382648684,-4.134255775952637,0.0,0
729,-2.730653065773952,-2.253409857049257,0.0,0
730,6.178781831201701,2.3003278528233655,0.0,1
731,-1.7854475493552144,-4.91950583406757,0.0,0
732,-2.9895201900489594,-2.009951344288316,0.0,0
733,-6.358850380429667,-0.44200350088847595,1.0,0
734,-1.1806046905317058,-2.5296696915800396,1.0,0
735,-0.9672860247391797,2.765386587261297,1.0,1
736,-3.06719213031149,0.10210838310343995,1.0,0
737,0.8471037256135261,2.448765026526545,1.0,1
738,4.620369995812032,0.3423445565038872,0.0,1
739,3.0525467169174307,5.611230579595642,1.0,1
740,2.2728828927464084,-0.17765991240463008,0.0,0
741,-1.6893658755698477,-0.9842609629691954,0.0,0
742,-6.751662838705206,-3.6876368595583613,0.0,0
743,3.9251090265314463,6.254174783321612,1.0,1
744,-0.11577349909205426,2.890556134686123,1.0,1
745,-2.9371853491678386,-1.7113481130400992,0.0,0
746,-3.7463438262065463,-3.993828692868638,0.0,0
747,-1.4180588560401628,0.6369390652620348,1.0,0
748,-12.515531086431643,-4.330471634247199,0.0,0
749,-1.5521177988776507,-2.8836223839707187,0.0,0
750,2.7887701480048515,-2.612362401811734,0.0,0
751,-0.3089031041799781,-0.6153904075408667,0.0,0
752,3.7047446094896017,2.156041091399415,1.0,1
753,2.3004750632712714,-4.651006148448063,0.0,0
754,-2.066257496701123,-5.466852351312907,0.0,0
755,1.298798182494989,-0.9055372766093366,0.0,1
756,4.651741920614408,4.671154517592614,1.0,1
757,-4.215161394773896,0.9399253003876833,0.0,0
758,0.12266284836494767,-1.6052288446014595,1.0,0
759,3.7313466416176677,0.21952646172356394,0.0,1
760,1.615537543897761,0.12137357864490061,1.0,1
761,-0.1529791858224092,2.3940668836866372,1.0,1
762,4.274204981998329,2.8158800421871923,0.0,1
763,-1.3582500965984932,-2.465860849648152,0.0,0
764,0.6662776884208488,1.9520417149429496,0.0,0
765,-2.640133767349915,-2.008218178602446,1.0,0
766,-3.1054293031810425,-2.5840547516874244,0.0,0
767,4.766466574017517,1.6089278159676144,0.0,1
768,0.024763379760737392,0.9993897929913818,1.0,1
769,0.3487043817302604,-0.5075437999119661,0.0,0
770,4.997702893920508,4.13945083113561,0.0,1
771,1.8755167813647362,-5.546087656516045,0.0,0
772,3.084576599695578,2.5741755916374798,1.0,1
773,0.3469594763654742,0.8544296123574733,1.0,1
774,1.787786172770021,-0.9437100149617312,0.0,1
775,-0.9392703468475216,-1.7152846636955668,0.0,0
776,3.158697789230854,3.667667795828452,0.0,1
777,4.176562046948504,2.8656391730613837,1.0,1
778,0.903071177989089,-1.0111699418285345,0.0,0
779,-11.509443213990352,-5.090377237019883,0.0,0
780,1.7959010850500892,0.9892147621936227,0.0,1
781,0.4629816017469244,-0.9252265683917376,0.0,0
782,1.644235961376772,-4.17442393706118,0.0,0
783,3.751240306010687,4.629707142787796,1.0,1
784,-1.316381622482694,0.8478311582117561,1.0,1
785,1.785119701799756,1.1753776641879634,1.0,0
786,4.226067109852588,2.0603831802144583,0.0,1
787,5.718274673212597,3.789728809986928,1.0,1
788,-0.15057329085316895,-0.7663448286899157,0.0,0
789,0.8839387261433198,-3.5521341834065496,0.0,0
790,3.755322989300911,1.2011000697357317,0.0,1
791,-4.908147585911022,-3.2670644522835577,0.0,0
792,-6.602450414735323,-5.796392013802487,0.0,0
793,-9.0430573069163,-0.43666706800077626,1.0,0
794,4.110918910629849,-0.7831540887529238,0.0,1
795,1.457842143409099,0.4901242197347808,1.0,1
796,-1.0504534646161483,-0.6565181677127399,1.0,0
797,2.0567937501166544,4.867974468924511,1.0,1
798,1.8295822411317766,0.7025243169913047,0.0,0
799,5.459480679707949,-0.19959016081918723,0.0,0
800,3.133829621889527,0.36671741653495027,1.0,1
801,-4.0271933388210055,-3.371279777495709,0.0,0
802,1.9212699556363235,3.3239975682561136,1.0,1
803,-3.840813004972112,-5.661998345185512,0.0,0
804,0.33596980647043173,2.547826030545675,1.0,0
805,-2.8810508232878718,-4.412669406066136,0.0,0
806,1.8286534621436485,4.909164093417564,1.0,1
807,-8.152502623932879,-0.24779198045747308,1.0,0
808,-0.8295595611352535,0.7560991059880215,1.0,1
809,-5.305292653178848,-3.209724337854765,0.0,0
810,3.696056184697139,6.735150179930185,1.0,1
811,2.700249425655963,4.908826469658278,1.0,1
812,2.955391669208457,-0.9441428129425617,0.0,0
813,-2.327848202583783,1.5359195142527535,1.0,1
814,-0.13251917620313458,2.3172360245994894,1.0,1
815,3.3714399797394994,5.793723290670638,0.0,1
816,4.865573573771596,2.859977260840979,0.0,1
817,2.5420797714905983,3.287426381179129,1.0,1
818,-3.033998253751114,-1.3520084387819309,1.0,0
819,-2.5074084979391316,-4.4016681832319495,0.0,0
820,-6.5702087938209015,-1.9135240823903747,0.0,0
821,1.135804963547875,1.0371707733284015,0.0,0
822,-7.365041667554311,-3.2468347681318015,1.0,0
823,2.733663115015755,1.1703038877124756,1.0,1
824,-2.929966348755709,-0.9298598939029836,1.0,1
825,4.525016065944758,2.767123650411027,0.0,1
826,2.932207915139858,2.268672707219025,1.0,1
827,-0.32143160819740535,-3.7219679484834223,0.0,0
828,-7.412416642023514,-1.5501731936625824,0.0,0
829,2.8972338091354466,0.8336137306099936,0.0,1
830,2.8866417853824027,-0.9169538633892096,1.0,0
831,-1.2414862887286404,-0.25337116185637987,1.0,0
832,0.3127861458582011,2.591968871203086,1.0,1
833,-1.3432276055807795,1.4141595215582594,1.0,1
834,-3.6671325205309424,-1.321256854333561,0.0,0
835,-2.925492042483673,-1.1667471042855406,0.0,1
836,2.885113070402345,1.8072841804930837,1.0,1
837,2.413461639123593,3.7468732398420284,1.0,1
838,-3.0182267223532073,-2.346762045549854,1.0,0
839,5.922403621293663,4.676255594910282,1.0,1
840,0.7996964295145277,1.3445406029365206,1.0,1
841,-2.433872169266637,-3.517097721372895,0.0,0
842,7.84472177323128,2.213368624304007,0.0,1
843,-0.7717823367109249,-4.998568474676208,0.0,0
844,0.7468022418303855,4.295077322570248,1.0,1
845,-3.0017743127538754,-0.9668726638656431,0.0,0
846,-0.4275140706075051,3.6341305891800175,1.0,1
847,-5.47709402929542,-0.9021808691001345,1.0,0
848,0.8355895824026773,1.679626190670229,1.0,1
849,0.15192163480371845,1.1574477652408177,1.0,1
850,-4.575395993814777,-2.861038824134122,0.0,0
851,-2.4856967419191944,-2.9577937362392888,0.0,0
852,-0.054521496132042824,0.20896308059123325,1.0,1
853,2.074067609268566,0.5399960961544308,0.0,1
854,1.707383163273084,1.5553687665817675,0.0,1
855,-0.8428675507547638,0.13797936091795515,0.0,0
856,-0.4048907356151126,-3.91659477423845,0.0,0
857,-0.6093452484066324,-6.352466029866745,0.0,0
858,3.0605747288801437,4.58908621281174,1.0,1
859,2.8644738494731943,3.062388822103375,1.0,1
860,-5.560183002806253,-2.21410176899803,0.0,0
861,-0.3356636771215915,5.590660776611234,1.0,1
862,-2.0226491955883024,-3.31595892890996,0.0,0
863,-3.1057438399772686,-2.3555990256040884,0.0,0
864,-0.06589423002324457,4.400723363604919,1.0,1
865,-4.101800381199771,-1.0293245866153924,1.0,0
866,0.5441010349632676,4.544380657188816,1.0,1
867,4.123796600500462,1.2053048348513378,0.0,1
868,3.1574927505843617,3.808918755780261,0.0,1
869,-1.3117107433390574,-2.4238256907010363,0.0,0
870,-4.060800147266295,-0.30951232068978785,1.0,0
871,3.307055687835983,2.364190971046837,1.0,1
872,-0.6328488014249225,2.8699518693828834,1.0,1
873,-0.15232053328823025,-1.570906064125956,0.0,0
874,2.3311673545073366,-1.3226424965132422,0.0,1
875,1.9076610878239413,4.0101610958586935,1.0,1
876,2.7845369365222252,1.8897013454100113,1.0,1
877,-1.2928076248204556,-2.5754100459417852,0.0,1
878,-5.11786193456113,-0.4180204638374052,1.0,0
879,4.084579606481572,0.4072876744578915,0.0,1
880,0.6281981448847072,3.1847368535835834,1.0,1
881,-5.3903169447151775,-1.0989789797537153,1.0,0
882,-7.51708652044395,-1.6063764987620746,1.0,0
883,3.146424978447903,0.7429035846747252,1.0,0
884,0.30355896564038587,5.788659918878093,1.0,1
885,1.9313132772836528,6.002274260773588,1.0,1
886,-9.57256245391963,-2.008907616327547,1.0,0
887,3.9052172342416025,1.4388864966050599,1.0,1
888,-1.5308037068005658,1.6577047324052316,1.0,1
889,-2.112681699957424,-0.6574999111830537,1.0,0
890,-2.6415278013009575,-2.0308868089619816,0.0,0
891,-3.496234235353839,-2.314555116619262,0.0,0
892,-0.9462332766553181,-0.40897433570959807,1.0,1
893,-1.2181086431841885,1.6114372395552172,1.0,1
894,0.8140328277292208,-2.6639273023554946,0.0,0
895,6.357339079068848,1.949880990541928,0.0,1
896,-7.054769573181403,-2.805115141647634,0.0,0
897,3.5700420584473447,2.0566452185025663,0.0,1
898,0.2634846152264112,-3.1604578392021527,0.0,0
899,-6.524490989519057,-6.213101360091244,0.0,0
900,-0.3344162042906653,-3.993676959306126,0.0,0
901,1.7511390531913864,-5.316152792885769,0.0,1
902,-0.8606337234250168,-3.2535323247169705,0.0,0
903,3.2041285771441648,0.5943645220416465,0.0,1
904,1.6491341675826283,-1.2445157921586978,1.0,0
905,-4.740895903957329,-2.890266362794157,0.0,1
906,-6.116199977457369,-2.796823674633604,1.0,0
907,5.096744242977357,2.2699695206164705,0.0,1
908,-5.000765776436216,-2.9008094379459854,0.0,0
909,-8.003016913177888,-5.109728097447475,0.0,0
910,-6.6284350113965145,-1.0570192418624895,1.0,0
911,4.831062243238408,-2.606614931019525,0.0,0
912,0.14997995674246023,2.191775700426917,1.0,1
913,3.328008644252665,2.295548572970473,0.0,1
914,3.7252218922970073,0.24478133465833674,0.0,1
915,1.980346479253919,3.7083156009298275,1.0,1
916,-3.096467557813206,-2.929579957987583,0.0,0
917,2.1001105620586227,-1.3402453649276311,0.0,1
918,-4.373012595001381,-2.9800541089161032,0.0,0
919,1.4831744003797294,2.6981898409356755,1.0,1
920,0.0747293021338602,0.046542375702872896,1.0,0
921,-0.13123633560178893,1.7010732034358664,1.0,1
922,3.642541472073954,2.151249634066534,0.0,1
923,-0.4511306818958123,-1.4160930626181845,0.0,0
924,3.4700518321639096,6.499807911820605,1.0,1
925,3.4594224635971718,-0.48148348386305706,0.0,1
926,0.37640753303782226,-0.8696821825165828,0.0,0
927,2.911322867783793,5.754690354022594,1.0,1
928,-0.5563277062608654,4.9927055291144065,1.0,1
929,-2.866093377112871,0.14458177188188848,1.0,1
930,1.3294577960556082,-1.206605799437317,0.0,0
931,1.0518921952237976,5.254307326607779,1.0,1
932,-1.9492856591804513,-0.11030918697832237,0.0,0
933,-1.6542893574402906,-3.7019683113344968,0.0,0
934,3.4684516465761432,2.467959604327568,0.0,1
935,-0.2951384734364795,3.6940977038204665,1.0,1
936,3.6122111160301458,3.652859098717151,0.0,1
937,-0.8505427692941492,-1.58519911615253,0.0,0
938,1.9772483408387682,3.6751671352449513,1.0,0
939,3.5762534721160835,2.4780189730560127,1.0,1
940,0.9109417633692107,2.249475674800285,1.0,1
941,0.2938371409625957,-3.2053756005103717,0.0,0
942,-2.4516435025147145,-0.438139360615869,0.0,0
943,3.9050220295280322,2.212366081449168,1.0,1
944,1.8010874892688062,4.141973364489354,1.0,1
945,-4.564594978595736,-3.3580979724172915,0.0,0
946,0.018390608231710903,0.7247348224546193,0.0,0
947,-1.7937893799786866,4.269066384367988,1.0,1
948,-0.03413759363878799,-3.2006631465059505,0.0,0
949,5.061540483931101,1.2402604264148254,0.0,1
950,3.1313544593610985,3.45829571060308,1.0,1
951,1.885587200412565,-1.210831393836648,1.0,0
952,3.8353194075024626,-1.3979697629351642,0.0,1
953,2.7909416109039853,4.272241629358678,1.0,1
954,0.011732824213958715,4.319064331577923,1.0,1
955,0.17147088057096838,0.052661173376364,0.0,0
956,-0.5960236983637954,-2.1148578490149474,0.0,0
957,1.2158420123823666,5.291707135410572,1.0,1
958,-0.45699805959967077,-2.9435369666377618,0.0,0
959,-0.06222110088230037,2.370032373326552,1.0,1
960,2.8817527685916935,4.890610865698381,1.0,1
961,-0.5929987501149439,2.158839476082628,1.0,0
962,1.9206087063506372,-0.3464548142576853,1.0,0
963,-3.8762095417472464,-4.163337598683812,0.0,0
964,-8.494575567665645,-1.139429934837396,1.0,0
965,-4.2084444453445435,-3.4347326210820652,0.0,0
966,2.3402246643012967,-2.0013518542292763,0.0,1
967,-5.285267184587536,-1.053724010132336,1.0,0
968,3.5013457311078335,4.890406839423981,1.0,1
969,3.015012042261144,2.873902753414213,1.0,1
970,0.5010653714163815,7.656870156651658,1.0,1
971,-2.5497660976173115,-2.532516893513782,0.0,0
972,-2.3250053070953274,-2.7759338270965035,0.0,0
973,2.32956875525049,1.3049176760328716,0.0,0
974,4.894735548266107,2.6010831579658023,0.0,1
975,0.651274274575627,-1.216732348332426,0.0,0
976,-2.1586508085119336,-4.949065201882519,0.0,0
977,0.7400611749029589,2.6480177653459673,0.0,1
978,-1.9541910401257605,-3.1440946944628587,0.0,0
979,2.7035237617199526,0.076125596855535,1.0,1
980,-5.020908474164777,-4.338782398960319,0.0,0
981,-2.5983646084632745,0.9062917271328701,1.0,1
982,-0.8357689583043868,-6.118044710187151,0.0,0
983,-1.058340958950363,0.6793880274903592,1.0,0
984,2.3599915526955817,-2.93375879523792,0.0,1
985,-1.7385027754895268,-1.977414032139625,0.0,0
986,-1.2356208120105154,-3.670239649941394,0.0,0
987,3.9536492249843675,3.3656627097905716,1.0,1
988,3.524084329103534,7.672314869838321,1.0,1
989,-0.6284187698596533,-1.9861126946504863,0.0,0
990,1.775963926087044,-0.3421587431158897,0.0,0
991,1.18994438405204,-1.9099130287667976,1.0,0
992,2.3344919342031734,-1.6936099331004588,0.0,0
993,-4.70215363767726,-2.624000730449576,0.0,0
994,4.482831368639077,2.2333299507538515,1.0,1
995,-4.772089615743157,-2.657398005022585,0.0,0
996,-12.283697779521125,-6.149056986622973,0.0,0
997,0.6323638668507421,-3.6789348675666895,0.0,0
998,4.298533801067375,0.25006895365231463,0.0,0
999,-1.3750272632513605,3.6126152175875115,1.0,1
1000,-1.45390033631641,-1.667095043574037,0.0,0
1001,0.8285618836647475,4.514047340803436,1.0,1
1002,-2.112978436261999,-1.5820491133591206,0.0,0
1003,-1.2157556565140986,-4.637040341678437,0.0,0
1004,1.7065837771514532,0.764761248991902,0.0,1
1005,3.6378419211824196,2.1945939311845852,1.0,1
1006,-0.9435006593559432,-4.261073880381577,0.0,0
1007,-6.103664744440407,-2.781125041519293,0.0,0
1008,-4.026438807485268,-1.3521249788885288,1.0,0
1009,2.3011314751988285,7.854592157710815,1.0,1
1010,0.5531580223479393,2.3216037710543476,0.0,1
1011,0.8041660876742807,-0.0577918150557557,0.0,0
1012,2.9247918182229826,1.2222212573902482,1.0,1
1013,3.1394375275199975,4.420231355947229,1.0,1
1014,-0.060023442878264,-0.1259330095864284,0.0,1
1015,2.3480088490016864,2.6276423019236295,0.0,1
1016,9.031004011490243,5.035410762779755,0.0,1
1017,0.6517076451815635,1.492235973595123,1.0,1
1018,2.356420453630956,-0.20867596935307242,0.0,1
1019,-1.3209529300322422,-1.56460757538184,0.0,0
1020,-2.5191872422656614,-3.4578580635824583,1.0,0
1021,-0.3032828249465256,-4.239336594828176,0.0,0
1022,0.6291528712606773,4.594783981183452,1.0,1
1023,0.8692348552939966,4.257870078877401,1.0,1
1024,3.9136141512863607,3.687895912949256,1.0,1
1025,0.459807169786818,3.2979536232032203,1.0,1
1026,2.0377676166150964,5.478787942362075,1.0,1
1027,-4.049502118482801,-0.061126311998688454,1.0,0
1028,1.8998094829736947,3.663904746102503,1.0,1
1029,2.635891355271121,6.56797320616403,1.0,1
1030,-5.524899881418438,-3.4243107189512676,0.0,0
1031,-3.064087153066084,-3.2249267877623446,0.0,0
1032,1.456500086079729,1.734932180611818,1.0,1
1033,2.8394771004649617,3.506264267553478,1.0,1
1034,-0.7542534653273898,-2.43941686069323,0.0,0
1035,-5.158680235755255,-1.577394681146572,0.0,0
1036,-3.8492633470696607,-1.3153605095147458,1.0,0
1037,-4.523891773440482,-2.0661545823759653,0.0,0
1038,4.595123208488698,0.3744503833908226,1.0,0
1039,-2.3267375790217986,-2.3511370408154697,0.0,0
1040,-4.756237462128234,-0.552186107201454,1.0,0
1041,1.7801535989037869,-4.197347587183958,0.0,0
1042,-4.027860916796345,-3.946014904847451,0.0,0
1043,-4.4318835997703205,-3.1216290236945317,0.0,0
1044,-0.20389650176206242,-2.9648107668135477,0.0,1
1045,3.945002171505415,2.0444818041715753,1.0,1
1046,-0.6659560158243312,1.5880903331412664,1.0,1
1047,-1.5559141207344132,-2.8766205464506327,0.0,0
1048,-3.087386404051585,-3.7866847568514217,0.0,0
1049,3.273387824444049,1.7111809070136776,1.0,1
1050,-3.9402180426107556,-0.0069413192724605555,0.0,0
1051,1.3888377689384024,1.3913174361844687,1.0,1
1052,1.569695360517093,-1.8749581170436396,0.0,0
1053,2.885277578983414,-0.46898767246617057,0.0,1
1054,-2.0827110039956436,-1.520107825274596,0.0,1
1055,1.2724517058621632,-0.2980036453560726,0.0,0
1056,1.0303878666468984,2.0225999930330847,1.0,1
1057,0.24207490839449797,4.903849790610057,1.0,1
1058,3.3127388447176758,-1.4869653511048506,0.0,0
1059,0.5149958534997556,-0.7514782592346076,0.0,0
1060,-1.4361421346462273,-1.8692962408924145,1.0,0
1061,2.0688486946063533,2.949615919673333,1.0,1
1062,3.6083144615948823,2.7585198641692195,1.0,1
1063,-7.5374379621521905,-4.991664423425277,0.0,0
1064,0.5374647240467714,-1.1619998229517665,0.0,1
1065,-0.042635318515547915,0.4423019711185412,0.0,0
1066,-0.6855216633608034,-3.205833063792742,0.0,0
1067,-7.393056586879403,-2.7983756225133964,0.0,0
1068,2.3435336386079015,7.332943229089289,1.0,1
1069,1.1914404419626163,0.11753147241295725,0.0,1
1070,-3.9758682763094386,-1.034353535752396,1.0,0
1071,-1.7371165006866685,-0.322320675914213,1.0,1
1072,0.9398034344258166,2.9049173708089757,1.0,1
1073,1.5302548193380372,-0.38417065431479314,0.0,0
1074,3.1150073482319938,0.31665191997831954,0.0,1
1075,-1.0128787994403536,0.9151215425659136,1.0,1
1076,-1.077420468198738,-3.8682682115798395,0.0,0
1077,2.280557025094552,3.858842539916151,1.0,1
1078,4.396525106380439,5.738846569482138,1.0,1
1079,1.4988447450032618,0.6849844809317278,0.0,0
1080,3.4712287316131905,4.336260103444873,1.0,1
1081,-0.19662329317197846,-2.605678336198457,1.0,0
1082,6.339074113329551,-3.2856642915233296,0.0,1
1083,-7.034651307976646,-1.7709819899450217,1.0,0
1084,5.826654351113971,3.440820754122798,0.0,1
1085,3.267828006160631,3.3131146478761853,1.0,1
1086,1.4700581655058245,2.409639722536194,1.0,1
1087,-1.4586705309475083,0.21053539245981923,1.0,1
1088,2.7491796214211552,0.5134734088722677,0.0,1
1089,-2.0011520690885702,-4.719935174518628,0.0,0
1090,-0.3825070810966702,4.925747087165104,1.0,1
1091,-1.0306899026031187,7.685619294014103,1.0,1
1092,-4.669307065056422,-1.3537443656228851,1.0,0
1093,2.8478320574557623,-1.09430078974049,0.0,1
1094,6.098612744346066,6.095982565069747,0.0,1
1095,3.3768286316806373,1.8391037220049766,1.0,1
1096,2.7016005539907457,1.900595981111414,1.0,1
1097,-5.024692032880798,-2.3847541498457154,0.0,0
1098,0.5192965936134764,-1.3919070541011018,0.0,0
1099,-0.2574872542599822,1.422634227233821,1.0,1
1100,-0.7802551444899763,-0.9997303564911451,0.0,1
1101,3.9326590349229544,1.838974231078952,0.0,1
1102,4.243141193264748,0.733433985648396,0.0,1
1103,-2.0246899416349566,-2.4274386189209136,0.0,0
1104,4.904324968393956,3.2367400500539,1.0,1
1105,-3.2343242764218147,-0.37738098964334643,1.0,0
1106,0.5780638775718379,0.3468843734589935,0.0,1
1107,-0.2336137309403794,2.7910941754540093,1.0,1
1108,1.147216511538132,3.8076439840973095,1.0,1
1109,3.076145741234294,2.141158516137888,1.0,1
1110,-2.0188714622066763,4.321907292013359,1.0,1
1111,1.7226739253463916,0.34791658519644253,1.0,1
1112,7.637927154148336,5.3576022860711365,0.0,1
1113,-3.2888462289453244,-3.4376612947251823,0.0,0
1114,1.5981524743770077,5.547850434713647,1.0,1
1115,6.041248317970359,-0.6726745851853195,0.0,1
1116,-0.7195862183278767,2.103071506208325,1.0,1
1117,4.0686289769951,2.169143494793608,1.0,1
1118,-1.6404601032349742,-1.4835470506043151,0.0,0
1119,3.4112051557506198,5.018484207554977,1.0,1
1120,-3.956884888115055,0.2417390996375235,0.0,0
1121,0.2547143140715651,0.516042122387613,1.0,0
1122,4.215267187744913,0.5089692600322611,0.0,1
1123,-2.7817325530399515,0.41734596712750527,1.0,0
1124,-7.326834860344499,-1.1935287556713396,1.0,0
1125,-0.217440903624315,-3.2109581548729595,1.0,0
1126,-2.038160492580792,-3.3260549043681715,0.0,0
1127,-0.07960981669142142,-0.8181966325697578,0.0,0
1128,-3.9351905614956877,-3.4933009232716214,0.0,0
1129,0.7957514414497284,-1.3218078838245702,0.0,0
1130,-2.104624757313803,-1.2829202739422785,1.0,0
1131,-2.8375111941864644,0.5285491196660543,1.0,0
1132,0.40321373863985266,-1.1916614397507321,0.0,1
1133,1.8854550506029402,0.8965327481910437,1.0,1
1134,-1.5765636679224702,-2.0133000571363784,0.0,0
1135,-1.6262124350376905,3.4965821675222672,1.0,1
1136,-3.567228233488476,-1.3212534749648746,0.0,0
1137,1.0301095288412019,-4.479260017658888,0.0,0
1138,4.123214781747844,3.292564083551415,1.0,1
1139,-1.4040468949776832,0.20331529259958225,1.0,0
1140,-2.1476674279036407,0.7049277092500952,1.0,1
1141,-4.810433145419302,-0.6893839979437386,1.0,0
1142,2.2001223664162275,3.7885019387247705,1.0,1
1143,0.5126250423911376,-1.9317022525811258,1.0,1
1144,1.7698353187134739,-3.7585377632262045,0.0,0
1145,-1.1786361325914467,-3.5813049497654887,0.0,0
1146,-3.2614045149632496,-1.1413355390697344,0.0,0
1147,-4.422176726033655,-4.957142725937512,0.0,0
1148,1.9832414624498997,-3.7512578467619897,0.0,0
1149,-2.556532759099176,2.2174512534095996,1.0,1
1150,-4.4554412656542475,-4.3294001463727145,0.0,0
1151,3.4313155248895386,1.780005885880442,1.0,1
1152,2.8280967245451083,-2.3032718768353204,0.0,1
1153,6.844638938683798,3.307658562713303,0.0,1
1154,1.941565104799886,1.9420429591400765,1.0,1
1155,1.8537755905621058,4.286884712605829,1.0,1
1156,-5.410980387586893,-2.7998675594035247,0.0,0
1157,-1.9333936033617745,-0.28905039782896824,0.0,0
1158,-6.953183595057181,-5.194150300474005,0.0,0
1159,1.7435953264108608,0.30453160578627414,0.0,1
1160,0.39359829684761216,3.39245470170863,1.0,1
1161,1.8111736639712661,-2.1899961203433493,0.0,0
1162,2.599648569514865,0.9696853040580278,1.0,0
1163,-3.1311034275199496,-3.987351790782243,0.0,0
1164,3.006536464208722,-0.9255074282292766,0.0,0
1165,-1.4506711178686427,-1.500782612730652,0.0,1
1166,-3.3934989555594974,-0.37103573091187547,0.0,0
1167,-2.663005098461433,1.8515499301056617,1.0,0
1168,2.8185963031768395,0.15838935515494645,0.0,0
1169,4.035532772767279,1.3675485641002296,1.0,1
1170,0.7806944203238566,2.668753688016645,1.0,1
1171,0.008412341471358165,2.7391730661191076,1.0,1
1172,3.5637493752912373,5.265979562181574,1.0,1
1173,4.269248612534509,-3.10654040969528,0.0,0
1174,2.3413957816699096,-4.2067105946999135,0.0,0
1175,1.1205287308819576,0.3008507001779961,0.0,1
1176,-1.3491225784960974,-0.873776345360515,0.0,0
1177,0.3037037297191647,0.6236960446630877,0.0,1
1178,3.1657172017025825,3.8965977702342784,1.0,1
1179,3.3844325773222006,1.3300410397887712,0.0,1
1180,-1.3662937615594166,-3.89906875645534,0.0,0
1181,1.0961126733694675,1.6506294474410848,0.0,1
1182,-0.15315558580769406,-1.7822962029932845,1.0,0
1183,1.606677150833577,-2.219551609826234,0.0,1
1184,-3.2903332310684714,0.1219115496675518,1.0,0
1185,2.894858678883442,5.919441549866848,1.0,1
1186,-4.464653639066187,-5.640170844468872,0.0,0
1187,-3.2073751762609866,-4.63672769645042,0.0,0
1188,-2.513157106152763,-0.9688151145472559,1.0,0
1189,-3.845770624482018,0.7406980680467972,1.0,0
1190,-1.4155204805622716,-4.508467398933373,0.0,0
1191,-0.23576360762841686,4.98887441764662,1.0,1
1192,-0.3961406789532398,-1.1925418524004439,1.0,0
1193,-2.1348856281014803,0.077177319519945,0.0,0
1194,4.0639691190097995,-0.2106563350348274,0.0,0
1195,-0.7667570979831635,1.927703504993742,0.0,1
1196,0.9038879283948977,5.2778959562516885,1.0,1
1197,2.586393879267586,1.5004514455956133,1.0,1
1198,0.9878884492925479,1.8965329290890032,1.0,1
1199,-2.8915276286689915,-5.036027983169558,0.0,0
1200,3.084658983528983,-0.3089506986655737,0.0,1
1201,0.0335310498535939,0.9304565341748365,1.0,1
1202,-3.881523096032923,0.35895158775352876,1.0,0
1203,-5.684391675972622,-1.0172095632379277,0.0,0
1204,-2.726049742554137,-2.509746316554742,0.0,0
1205,-1.6343458247905165,3.6108993532697315,1.0,1
1206,3.7344395376615713,-1.1350828185898192,0.0,1
1207,-4.001908364244422,-2.336629624349921,0.0,0
1208,3.318430687696926,0.16143442001847674,1.0,1
1209,-1.1904617832375404,-2.503635627923827,0.0,0
1210,-2.2919897282952104,-1.089951740447701,0.0,0
1211,2.9956820106324007,1.8770580764357663,0.0,1
1212,-2.1081138678214373,-0.8670339122038486,0.0,1
1213,1.237980477260912,2.0353141235725674,0.0,1
1214,5.346742589854425,2.3285034621232934,0.0,1
1215,3.1659425470032154,0.3537164051049424,0.0,0
1216,0.30986141862293604,-0.3262720342889167,0.0,0
1217,2.7192343739048224,3.6918128232613814,1.0,1
1218,4.258834300778522,0.426901737930526,0.0,1
1219,0.7714116851861519,-0.7944178629823502,0.0,1
1220,0.980277505994803,-3.2976550637730417,0.0,0
1221,0.537894365703095,-2.3155147213857847,0.0,0
1222,3.636704172456039,7.721686511476758,1.0,1
1223,0.018329594508377234,3.354216289881338,1.0,1
1224,-0.6946830157779984,0.5478839587791513,1.0,0
1225,2.3299118308590177,0.6301507539350775,0.0,1
1226,3.6194463125852283,6.317601530233835,1.0,1
1227,5.736408853693529,4.2542910616039835,1.0,1
1228,-2.2655435702145557,-2.2003410914595785,0.0,0
1229,5.709339859275886,1.3788922926481941,0.0,1
1230,2.021414130526604,-1.5771542414656756,1.0,0
1231,3.2613124660070225,1.9821964485034929,0.0,1
1232,-0.37910934930856,-2.8403123378577764,0.0,0
1233,-2.771798252526458,-4.083272106259096,0.0,0
1234,0.5429963317228534,1.7085536885147357,1.0,1
1235,-3.1914823491693287,-0.18448800758205963,1.0,0
1236,-1.2394799207913962,-1.4475516756074904,1.0,0
1237,-3.907395829084833,-5.115929578264481,0.0,0
1238,-3.407360903996164,-2.4751825969466754,0.0,0
1239,3.900744126885084,1.8587009158706247,1.0,1
1240,2.350756244896981,3.850698090996131,1.0,1
1241,3.6012302685824933,1.3896633227330968,1.0,1
1242,5.546534643332301,1.732885080874012,0.0,1
1243,1.7003904864445125,-0.659176568347343,0.0,1
1244,3.9920095153304844,2.540796775511949,1.0,1
1245,0.043920095692770555,1.6720541147502996,1.0,1
1246,-1.1428143136817597,-1.0648687959770637,0.0,0
1247,2.2025821384746886,4.864881304371962,1.0,1
1248,-3.64171009321447,0.2595220666907814,1.0,0
1249,2.5698334900994535,2.1748995400291604,1.0,1
1250,5.065052662002353,3.668306265377997,0.0,1
1251,-4.138650671691767,-3.3019450621193958,0.0,0
1252,0.6363131695287605,2.066164004556654,1.0,1
1253,3.662662721661902,1.3732470309320242,1.0,1
1254,-3.9190095049534888,-6.797595232358084,0.0,0
1255,-0.3833141768474271,-0.819464435939468,0.0,0
1256,5.76492376539211,2.927815230306753,1.0,1
1257,-5.04802918481062,-1.6040871075538736,1.0,0
1258,-4.657536035003432,-2.2694467166173067,0.0,0
1259,5.481971303169515,-0.26437708789893466,0.0,0
1260,-2.88294141735412,-2.5433303524118003,1.0,0
1261,-1.4013124616691046,0.3759255842855249,1.0,0
1262,-2.207193658454481,-0.17523172782301577,0.0,0
1263,2.173627546957275,-2.487921932793527,1.0,0
1264,4.099345375615511,6.049713242878872,1.0,1
1265,5.990632240817725,3.913344118709592,0.0,1
1266,3.428473781635952,2.6765957657895045,1.0,1
1267,-4.816453423620967,-2.6621597140409508,0.0,0
1268,-2.4881733250510396,-0.49655559585755094,0.0,0
1269,1.227784157332474,3.088565552790409,0.0,1
1270,3.9768434288695547,-3.279636949447646,0.0,0
1271,-6.711733173664533,-3.040843948646488,0.0,0
1272,-0.00621697939622079,2.4890771097285307,1.0,1
1273,-3.1572255969062795,-2.5538996984795306,0.0,0
1274,-2.815975471306925,-1.5876101130957112,1.0,0
1275,-3.870116265827247,-0.5742075194132215,0.0,0
1276,2.059341032287941,4.723454978806279,1.0,1
1277,3.481847677980398,4.2232445614012,1.0,1
1278,-2.3839207772519204,-2.2972617360580063,0.0,1
1279,-1.2033364600457652,0.7607081643249749,1.0,1
1280,3.3520356447742734,6.4312594095019415,1.0,1
1281,2.223767506976655,0.6048702265031776,0.0,1
1282,-0.4356719549474435,0.7348410625396695,1.0,1
1283,-4.0010251498109035,-2.2269370065111245,0.0,0
1284,-0.38049403161872286,-2.7984319290384616,0.0,0
1285,-2.417479722403247,-1.6052920633116912,1.0,0
1286,5.6360771841949076,4.603279425724695,0.0,1
1287,-1.3659074995689986,-1.9427964538678655,0.0,1
1288,-2.8504030885595406,-4.503555981652955,0.0,0
1289,-3.009241361376529,0.5999100053096638,0.0,0
1290,3.212790012649509,-0.8300480536650912,0.0,1
1291,-8.697470239564721,-1.7204790278256175,0.0,0
1292,-2.8440464728072126,0.21780046123138774,1.0,0
1293,-1.049847885391951,-3.5293849844563043,0.0,0
1294,-1.9950362016390204,-2.30990422857851,0.0,0
1295,1.1044756828406797,-1.7844332396677687,0.0,1
1296,-2.1096840797613083,-4.481625455690484,0.0,0
1297,-7.244820061127514,-1.5816224311605314,1.0,0
1298,-1.114277624098971,-1.5790172396552238,0.0,0
1299,-1.2223639520490517,-3.038869350093014,0.0,1
1300,-3.5099885215235407,1.1134159639591772,1.0,1
1301,1.664771293449642,0.6112044209870868,0.0,1
1302,-1.0028719286295193,0.3697903264317486,0.0,1
1303,-4.0196281782331535,-4.447585207898307,0.0,0
1304,-1.6281962164053567,3.9281871506031445,1.0,1
1305,1.1840265720494902,4.369413528397157,0.0,1
1306,1.347068899190192,0.3805015894400705,1.0,1
1307,0.09918124082533275,-1.9204197601485324,0.0,0
1308,3.3910714536684003,0.7849827545289709,1.0,1
1309,-0.3169873864070112,-2.311762362260818,0.0,0
1310,1.876136666646806,0.5903525861373047,1.0,1
1311,4.385202295272553,3.784112189980791,0.0,1
1312,-2.5969456237491855,1.0706360134023596,1.0,1
1313,-3.6568874055803477,-1.6137988727696957,0.0,0
1314,-3.510652001386002,-3.9415027466388275,0.0,0
1315,-0.08850770846021261,-3.060770127632285,0.0,1
1316,0.3743934654356993,-0.37351998709228895,0.0,0
1317,-3.322140646726245,-2.648920034795113,0.0,0
1318,0.2537135265087431,-0.8612589846488319,0.0,0
1319,0.41262123951739405,-1.0131132635027127,1.0,0
1320,-0.21206711582547388,-0.008928411168751982,0.0,1
1321,1.3289785677114918,-2.7511993084050372,0.0,0
1322,1.2321130346486189,2.193744922649624,0.0,1
1323,2.0472298650296388,0.3104428772491441,1.0,1
1324,-3.325798530422028,0.592599948266149,1.0,0
1325,-4.102822676512229,-2.993793947764698,0.0,0
1326,3.372861648124249,5.33275090340547,1.0,1
1327,7.252346638488485,1.5403630480420754,0.0,1
1328,1.6791383474537238,2.1274864136314804,1.0,1
1329,-1.0832471875804228,-1.4428270680783837,0.0,0
1330,-0.3620762575267773,0.7470998494454939,1.0,1
1331,1.041653261721296,-1.305926194413598,1.0,0
1332,2.5970604443784095,3.135525908566949,1.0,1
1333,-1.9672529386743982,0.6569425291743034,1.0,0
1334,-2.26787946095642,-3.170680999610366,0.0,0
1335,-0.14897844188237586,-0.32240402637861876,0.0,0
1336,-2.0228063638100005,-3.8372102671860375,0.0,0
1337,2.553208059306227,1.23506366775288,1.0,1
1338,-2.86225115458888,-0.7039973183343604,0.0,0
1339,-0.9830057998967949,-2.914384188963459,0.0,0
1340,1.1489986062809803,2.337958359614097,0.0,1
1341,-0.44158831825953726,-4.76785548864707,0.0,0
1342,-2.7792452552008173,-2.7682164647336425,0.0,0
1343,-4.155657877917058,-1.70525967407674,1.0,0
1344,-8.387591773532021,-2.215660520643135,1.0,0
1345,1.360001000044365,4.241548134696474,1.0,1
1346,-3.532643308700421,4.150387955998923,1.0,1
1347,-2.571595656111812,-2.3262264675051045,0.0,0
1348,-3.829229179242051,-2.470960332386452,1.0,0
1349,-0.3826922715723913,0.08606199148890514,1.0,1
1350,-0.631742726451967,-0.9779960062429744,0.0,0
1351,-11.068028649692856,-3.2566421076297263,1.0,0
1352,0.6733742419801043,-2.5027463507039522,0.0,0
1353,-2.034642929005757,-1.51695976823629,1.0,0
1354,2.416638544234308,-4.623020411879594,0.0,0
1355,-1.8060001747037364,0.6799425104031585,1.0,0
1356,0.45701715974833146,-0.8100787758597596,0.0,0
1357,5.493124887480583,0.0843602526700511,0.0,1
1358,2.1730298870983287,1.456310688200019,1.0,1
1359,-1.4146916780069474,0.6210025561758923,1.0,1
1360,7.943250771855338,0.466054235212809,1.0,1
1361,8.820167287233094,4.528572300020194,0.0,1
1362,-0.6483572862300155,4.005167384374017,1.0,1
1363,-2.7736308875971254,-2.4309956728743356,0.0,0
1364,-0.05113660566338507,-2.2387838725262825,1.0,0
1365,3.147822431557798,2.0305195904982485,1.0,1
1366,5.081822728811444,3.5002581375441784,1.0,1
1367,-2.3941179395669523,-3.8725324134230434,0.0,0
1368,1.543257507710175,-1.1168351846628588,1.0,1
1369,2.245076793308945,-1.0279888772997385,0.0,0
1370,-0.4887018372107197,1.0805128599148115,1.0,1
1371,-1.8691246776213242,0.6313994969607384,1.0,0
1372,5.156568995374283,2.288129243949312,1.0,1
1373,0.9424349804841625,0.9575428404816073,0.0,1
1374,2.11109180844195,-1.2079308483131466,0.0,0
1375,6.325234260204227,0.3381763035787264,0.0,1
1376,-0.07636042776459084,-0.15591927354974078,1.0,0
1377,-1.2525985072050636,2.060263759688982,1.0,1
1378,0.38530537947021903,0.4728112147181398,1.0,0
1379,-3.408808390240754,-4.847455746156255,0.0,0
1380,-1.7972165925619832,-2.551971490959347,0.0,0
1381,3.0477223979108574,-0.9295396173055264,0.0,0
1382,1.4898659682568027,3.5568907807425263,1.0,1
1383,1.8651173424989127,1.961154914845942,0.0,1
1384,2.227283710134444,-1.3885053236434497,0.0,1
1385,-0.16640279164028282,0.04968141428286765,1.0,0
1386,-1.6530726683995896,-4.435269510603621,0.0,0
1387,4.276754288355435,4.891485516035463,0.0,1
1388,-0.4592852071851743,3.4065731739925185,1.0,1
1389,2.0115470077303943,-2.990419965543498,0.0,0
1390,5.047170277184801,0.007867067672367334,0.0,1
1391,3.4420439395908997,4.555145877291623,1.0,1
1392,1.2140836169584541,2.585327859516055,1.0,1
1393,2.175617563562127,0.5769108057218042,0.0,1
1394,-3.242793914988515,-1.1556600323950632,1.0,0
1395,-2.1033302227047166,-2.9999063012994327,0.0,0
1396,1.9837607814454885,-2.930857419676671,0.0,0
1397,-2.2891279044657047,-1.4789196962892213,0.0,0
1398,-1.5856034689586331,-1.2825081682582984,0.0,1
1399,-1.4906550678292785,-1.932104023725378,0.0,1
1400,0.5388485585844045,0.5787539381026321,1.0,1
1401,-5.416877397558965,-3.799549750437641,0.0,0
1402,-2.033048987360292,0.4547254457476928,0.0,0
1403,4.468092987365374,5.332779448269715,1.0,1
1404,-0.1355680646357844,3.998164057703989,1.0,1
1405,-5.6874150675689386,-1.519696816821389,0.0,0
1406,4.164606499322355,-0.030155407213450225,0.0,1
1407,3.760202852106864,0.13906888711965482,0.0,1
1408,3.9589321121167464,3.6343288339504425,1.0,1
1409,-4.124901966165539,0.5089458731482868,1.0,0
1410,2.9889450561209534,-0.48814572832110814,1.0,1
1411,1.9023983388221373,-0.13054139431491096,0.0,1
1412,2.588053861170706,-2.7542576473882794,0.0,0
1413,-1.6772794025250777,-2.2332281120991126,0.0,0
1414,2.000186400239869,2.3966937158949437,0.0,1
1415,5.46436573602261,0.7077394012934137,0.0,1
1416,-3.570513780162776,-3.0638320519665845,0.0,0
1417,-2.5390642446429474,-4.300997510117351,0.0,0
1418,4.509952074436755,1.3881047176571082,0.0,1
1419,-0.43150836632010847,0.9821093677825152,1.0,1
1420,0.4421920267148107,0.15305777583801294,1.0,0
1421,-1.3979035196819911,-0.5311612539005601,1.0,1
1422,0.7832092632692889,-0.8583761613539556,0.0,0
1423,-4.693753135808024,-1.657961723606474,0.0,0
1424,4.742160849273115,5.113667438691634,1.0,1
1425,1.8980864410135054,0.44662749189229545,1.0,1
1426,-1.5905698993886808,-5.165694672595188,0.0,0
1427,-4.498412282493639,1.1620143447692608,1.0,0
1428,2.33813695130322,-0.17049769372647727,0.0,1
1429,-2.5418575955080267,-3.578944655019064,0.0,0
1430,1.7404416841086867,-2.1806391424877005,0.0,0
1431,-0.06054116832546441,4.85361721455679,1.0,1
1432,4.22749857669487,2.6140898185934036,1.0,1
1433,-4.778202683039677,-2.325503131537018,0.0,0
1434,-4.079723380162191,0.34268560259327785,1.0,0
1435,4.052363572995392,1.4593489055572268,0.0,1
1436,3.7777739584052945,-0.2842519086563098,0.0,0
1437,0.8308890921790479,0.39394911407453415,1.0,1
1438,5.738926251383535,2.54208403765948,1.0,1
1439,-6.189729438411954,-2.788138183205584,0.0,0
1440,-2.995674270937858,2.5348833587598687,1.0,1
1441,0.26714180697819545,-2.6874900185458848,0.0,0
1442,-0.3013158715296276,1.468636701529853,1.0,0
1443,2.1585642543607553,0.7906923710336673,0.0,1
1444,0.3220403621802854,7.784168739981093,1.0,1
1445,-7.832877260368975,-2.3054357095797435,0.0,0
1446,1.975859686392802,1.969923500477518,0.0,1
1447,-1.9555818261442413,-2.7596861458548356,1.0,0
1448,6.3668237814077635,3.9139992610695393,1.0,1
1449,-1.3946822642477792,-2.2614447540408404,0.0,0
1450,3.2708564581773825,-2.9977040099835603,0.0,0
1451,2.312350652639971,1.923084563525892,0.0,1
1452,-1.2811590890158762,0.5466521162348459,1.0,1
1453,-0.6062134761698275,0.9119184780196674,1.0,0
1454,5.713006485984745,1.0219414450192614,0.0,1
1455,3.0610528246080646,3.879009995606391,0.0,1
1456,-0.7027699025561323,-2.2059670361006027,0.0,0
1457,-2.968312227872822,-2.8225399975250682,1.0,0
1458,0.6343169176381647,-0.12672401500848895,1.0,1
1459,2.186618543361555,-4.4932900145128585,0.0,0
1460,2.2493297319757968,-0.42204894251259173,1.0,1
1461,1.337555947188065,1.9993588705017988,1.0,1
1462,5.235728886274824,1.5992278595664384,0.0,1
1463,-0.06754530431604744,2.6715575878500517,1.0,1
1464,2.719245310953501,-0.6037207460185996,0.0,0
1465,-2.5598227425598745,-1.3348699642260424,0.0,0
1466,-3.770356777646306,-3.6518471753219455,0.0,0
1467,2.406176871264382,3.0764166324136832,1.0,1
1468,1.3566293519220136,2.8526729223362057,1.0,1
1469,1.9863270169054414,1.8885008748949248,0.0,1
1470,-2.6619389037082195,-1.9155980346077572,1.0,0
1471,1.6795003340335963,2.4625101912857863,1.0,1
1472,2.1362619020049802,4.8906634363551476,1.0,1
1473,4.270768173725713,3.404095018567854,1.0,1
1474,0.6326004159420613,-5.077241393219413,0.0,0
1475,2.6951302405783397,2.7967678938124334,1.0,1
1476,1.2218207941782082,-1.668108696571716,0.0,0
1477,0.4494958522407435,1.3685382106372281,1.0,1
1478,4.014110733163222,3.836627412361813,0.0,1
1479,1.2364543108842052,-1.7175785263682757,0.0,0
1480,-0.39022451392330515,-0.5277400194269528,1.0,0
1481,-0.2683854549432283,-3.085467059957651,0.0,0
1482,0.8584955502918024,1.0714684844705888,1.0,0
1483,-1.3306229905445117,-0.7156745836101353,1.0,0
1484,-2.053803379644485,-1.5574914371487,0.0,0
1485,-2.491588145306954,-4.43243987302354,0.0,0
1486,3.9551566784742205,1.6423855903047202,1.0,1
1487,-3.842171778011789,-1.4607402079266336,0.0,0
1488,-7.175435953252574,-3.88237268918526,0.0,0
1489,1.3913046776051203,-0.10004215887833023,1.0,1
1490,0.32254480056783774,0.2364812066066142,0.0,1
1491,-1.7532139064862942,0.3854763002918631,1.0,0
1492,-1.2464346609010666,0.6108185112134559,1.0,1
1493,-1.0631265621039176,-5.37137947361164,0.0,0
1494,1.2900374677342126,-3.1629952339134366,0.0,1
1495,-4.505982637746382,-1.191392862994761,0.0,0
1496,0.06685274465137647,-2.373511189312431,0.0,0
1497,-0.1195578369582182,2.0147759997042543,1.0,1
1498,0.23243717259043928,-1.5657214733583253,0.0,1
1499,-1.5837709137358544,1.098902749369811,1.0,0
1500,0.9976040813581029,1.7610242912020568,1.0,1
1501,-2.0226836053915997,-3.3938747132847666,0.0,0
1502,0.35713091391315444,4.168384032645433,1.0,1
1503,3.8137420323362385,-1.4586034096789784,0.0,1
1504,0.4156549346966103,-1.845874013504668,0.0,0
1505,-8.211638885939482,-1.6054553243964294,0.0,0
1506,-5.262655115258912,-3.5999298965320263,0.0,0
1507,3.6536735303342085,1.8439681563346575,1.0,1
1508,-1.5179185389235261,4.951086780141579,1.0,1
1509,-3.355036213049187,-4.111298508016924,0.0,0
1510,1.1609222674779143,-4.034143374229529,0.0,0
1511,2.6139729547022483,-0.5568790996846462,1.0,0
1512,1.7275027967906924,0.4908443259111648,0.0,1
1513,-5.518934296316351,-1.6633070923354816,1.0,0
1514,0.6996331590208036,-1.4667109633872022,0.0,0
1515,-2.9268267993658625,-5.411512618255829,0.0,0
1516,-2.4595992894451943,-2.6769315129793316,0.0,0
1517,3.658670056629827,-0.3650874749148765,1.0,0
1518,-1.3430693525004944,0.2294363089359377,0.0,1
1519,-1.4930656270713663,-1.937200959932881,0.0,0
1520,0.1961206223830536,0.9760732479969265,1.0,0
1521,2.1845383497583875,4.103821425484791,1.0,1
1522,1.7170642504960296,1.9276098916169166,1.0,1
1523,-10.326881874859493,-3.224728611532374,0.0,0
1524,0.18806294596678308,-1.0225052082779755,0.0,0
1525,-1.9778553863392512,3.761527397798682,1.0,1
1526,-0.7098602688017972,-1.1915689121824335,0.0,0
1527,0.07751839342254918,-0.7210848538570576,1.0,0
1528,2.760588665185557,-0.1699572797197879,0.0,1
1529,5.034171735063699,0.7115973894955134,1.0,1
1530,-4.736150831910685,-0.7880168953420106,0.0,0
1531,-1.6408847531071116,3.8448122652195478,1.0,1
1532,-1.5379328696779346,-0.8965883209523984,1.0,1
1533,2.5579247320192917,1.625822537030499,0.0,1
1534,-0.3849724335984117,3.504711758813234,1.0,0
1535,0.9432470109279607,-2.951358445555431,0.0,0
1536,-2.9723902457558182,-4.471549722386811,0.0,0
1537,3.01786704705357,-0.22235681960843268,0.0,1
1538,6.401947082417517,0.550556795983407,0.0,1
1539,-3.9034811873928748,-0.05594085432223972,1.0,0
1540,-0.21677293726101077,3.235917886965907,1.0,1
1541,-1.4120610923447239,-1.7535150260628203,0.0,0
1542,4.808627980537206,0.4668540728455366,1.0,1
1543,-2.5109740225926553,-3.4806077863913387,0.0,0
1544,-2.6334762013004847,-0.6480185324573833,0.0,0
1545,2.072863547168936,0.6854589053415747,1.0,0
1546,2.544246864982369,6.711979157585554,1.0,1
1547,3.8551880808224217,0.3394239806456567,0.0,0
1548,-4.436173983339273,0.5612364522536644,1.0,0
1549,3.4685103897822867,0.5407556723688176,0.0,1
1550,4.008573596375923,0.5827841097389521,0.0,1
1551,2.5153826393359524,-0.024856119793660092,0.0,1
1552,-1.0989206966053549,0.49445080862009494,0.0,1
1553,3.406298176850572,2.288797910307034,0.0,1
1554,4.081503338064849,4.997072179441215,1.0,1
1555,0.13614597938070494,-4.037140708839232,0.0,0
1556,-5.208534175174234,-1.3396093971210439,0.0,1
1557,-3.4502343430336246,-2.5313804490027847,0.0,0
1558,-6.673011696662728,-2.2941764659963653,0.0,0
1559,-0.49089413591601083,1.0403233305631143,0.0,1
1560,-5.396815653797987,-1.0010941449314739,1.0,0
1561,1.5394710653866277,-2.006399472468954,0.0,1
1562,5.355191426667427,3.9546226919976517,1.0,1
1563,0.10231865368421378,-3.0525409528467793,0.0,0
1564,-8.603714505685176,-5.265381456476206,0.0,0
1565,3.1287600287060195,-1.8593206039629597,0.0,0
1566,-0.4809976870191972,-1.5869469816314843,1.0,0
1567,0.7555896121191539,6.78162022483183,1.0,1
1568,-3.7551604879805724,-2.0191899010875134,0.0,0
1569,-1.2345988237911398,-2.4468991883701623,0.0,0
1570,-3.205769482822034,-3.34332494685534,0.0,0
1571,-0.7281838899951683,3.1417764579801215,1.0,1
1572,-8.020949810486771,-2.3646364780575464,0.0,0
1573,-0.6987684511534047,-0.11280584840586583,0.0,1
1574,2.4642486979294116,0.2910845885213549,0.0,0
1575,-4.8304949347870885,-1.9740195181828812,0.0,0
1576,-1.5007365970898818,-0.2182248642889868,1.0,1
1577,3.612174595377553,5.661051801568103,1.0,1
1578,-3.131770912341528,0.809212118993134,1.0,1
1579,2.0567730708622673,-2.149031547999771,0.0,1
1580,1.6283999284172044,0.2850512625716406,1.0,0
1581,-6.014721807971098,-3.5898421892148624,0.0,0
1582,1.6011355605465174,1.0449922530037166,0.0,1
1583,-1.5876135166178396,-3.3319845632763117,0.0,0
1584,2.574026772204944,1.7511878815280733,0.0,1
1585,2.262759046950122,-3.0810259932766595,0.0,0
1586,1.0824040581756065,0.7458910979172757,1.0,1
1587,0.9484643347269119,-0.17133086751583737,1.0,0
1588,-1.1236081561310955,-3.4137169011429536,0.0,0
1589,6.268112055447793,1.9872419432824286,1.0,1
1590,4.2076117976522465,1.9454947093049804,0.0,1
1591,-3.1107596182108317,-1.095114578268132,0.0,0
1592,-3.554692928049902,-2.556344803068357,0.0,0
1593,0.2294602474755143,-4.363952755938955,0.0,0
1594,-4.495342847072183,-0.3211118849842092,1.0,1
1595,-2.7190067142758947,-4.2018496937836165,0.0,0
1596,3.7710937913346783,0.8745612742132893,0.0,1
1597,-3.9370114212664538,-0.664431545891297,1.0,0
1598,3.380732101888274,4.338451186358643,1.0,1
1599,-4.338740648593268,-2.553985182270428,0.0,0
1600,-1.1983280875240188,3.52128664625212,1.0,1
1601,6.366772259005729,2.888149632474569,1.0,1
1602,-2.3360504233840205,-3.990570013496144,0.0,0
1603,4.640771161510051,4.692214092620006,0.0,1
1604,1.7801684887317317,-0.0057400761336010575,0.0,0
1605,1.397843339525624,-1.3262213915116026,0.0,0
1606,4.36828929963688,0.1311917358038477,0.0,1
1607,-2.952043682681241,-2.063416639821547,0.0,0
1608,-0.5789851043122858,1.0400575058248607,1.0,1
1609,-2.1640340456562077,1.177097392970353,1.0,1
1610,-2.1595196205135183,3.036268265096421,1.0,1
1611,3.780211769927212,1.0064084841478929,0.0,1
1612,4.859552121792029,2.2537075262205786,0.0,1
1613,0.4502380047628307,-4.002452957842838,0.0,0
1614,-3.4825998938679756,-0.907554295703312,1.0,0
1615,-0.7031939512234644,-3.298172242065058,0.0,0
1616,2.2191130605628384,-1.5645706770641046,0.0,1
1617,2.8800977363696614,-0.7199852323266462,1.0,1
1618,1.2151323082344203,4.295771060384089,1.0,1
1619,3.3924484398550563,2.170942162770774,0.0,1
1620,3.061847048918935,0.9658692774313677,0.0,1
1621,-0.8146710136610034,-2.5237090413711356,0.0,0
1622,4.693482583529338,1.3998297652327594,0.0,1
1623,1.3243099152902436,4.63587836656767,1.0,1
1624,-3.0538627695662344,-2.1462694444721753,0.0,0
1625,1.0581405821675718,4.51066590607853,1.0,1
1626,-0.29609808422045436,2.337823279412446,1.0,1
1627,4.347679178112451,-2.700858061049573,0.0,0
1628,-7.4853136576406385,-5.659571941329201,0.0,0
1629,2.5531407671929154,-0.3960623339090834,0.0,0
1630,-0.49027471251054067,-2.9285669163703187,0.0,0
1631,-5.494581377149219,-1.8353028731123553,0.0,0
1632,2.150870473193786,2.8335909141027793,1.0,1
1633,5.126404034103181,5.588575271799906,1.0,1
1634,-4.554591971598595,-3.3982818652121756,0.0,1
1635,-0.8296449095883185,-4.276227946987431,0.0,0
1636,-1.176400952538804,3.4401312592888047,1.0,1
1637,-0.7209395981059723,-2.5738701676791322,0.0,0
1638,2.4687441957020315,0.566535630022603,1.0,1
1639,-2.089267996562792,-1.1624396947260536,0.0,0
1640,6.363121611606102,4.832743750835526,0.0,1
1641,6.857077375766465,2.369113411491004,0.0,1
1642,-7.8274101527470545,-3.8966186376995995,0.0,0
1643,1.4802525616146731,-1.7135141457313963,0.0,1
1644,4.428668366751268,3.045558829690364,0.0,1
1645,-2.3538531547901993,-0.917395675237076,0.0,0
1646,1.1124490847282948,5.489670765542243,1.0,1
1647,-6.5749161210985845,-2.1824850529602005,0.0,0
1648,1.6500151631752176,0.3849412468415405,1.0,1
1649,2.231757711148761,-2.731658268758295,0.0,0
1650,4.542205748377219,1.8488797968128226,0.0,1
1651,0.45668907848876206,0.13148728847828828,1.0,0
1652,0.28146093701133723,2.3925747747288413,1.0,1
1653,-2.5436989222033737,-0.9200073604358767,1.0,0
1654,-0.7764806577169932,-0.1046297210439846,1.0,1
1655,-1.1681455349464882,-1.2526538694365712,0.0,0
1656,0.5782808283727787,0.7329225673177646,1.0,1
1657,-7.671441321189403,-0.09096022212842692,1.0,0
1658,-1.872571402037682,-1.4689812650652954,1.0,1
1659,-6.255037676562002,-1.725822029925601,0.0,0
1660,1.7204381206266213,4.2209937331133744,1.0,1
1661,-2.784064057560918,2.0499723769952967,1.0,0
1662,-0.12544766809236751,0.281918738023877,1.0,1
1663,2.6975098987341783,2.634039500547315,1.0,1
1664,-5.616108511267591,1.7492569138707479,1.0,0
1665,-1.058562890523465,-0.5915762182724567,0.0,0
1666,-8.500367408510286,-4.976734042013687,0.0,0
1667,4.559292981361137,0.5259607408041611,1.0,1
1668,-0.2244842876209998,4.224000668973001,1.0,1
1669,-7.765738721035418,-2.907227305798533,0.0,0
1670,1.8039042414381794,1.8218247549422508,0.0,1
1671,2.306159552128157,2.0545219697071815,1.0,1
1672,1.5933445813466869,-0.26451188638771517,1.0,0
1673,0.7508204879439138,0.1511214180574303,0.0,1
1674,0.24527553848505645,0.7474079268556084,1.0,1
1675,-5.950288510020708,-4.688779088205486,0.0,0
1676,-3.745240564549919,-3.216375666955039,0.0,0
1677,3.7554461248944717,4.831484654875322,1.0,1
1678,1.3335126058838846,0.9622159742723129,0.0,1
1679,-3.8170825484013413,-2.187938646666529,0.0,0
1680,-3.999461503935783,-1.1478331844144691,1.0,0
1681,0.7334634325103182,-1.419785502836961,0.0,0
1682,2.216853577009024,4.8503096608524086,1.0,1
1683,-3.899744577205334,-0.48854577204621275,1.0,0
1684,0.5644311642533282,1.9907047955741621,1.0,1
1685,-0.8169045101903949,-1.4564635027602977,1.0,1
1686,7.125486089413217,5.023616030155583,0.0,1
1687,3.4900412117839874,0.5105250817788147,0.0,0
1688,-0.24776858100087495,2.3073436113890393,1.0,0
1689,0.8461615283770876,6.320922709394559,1.0,1
1690,-3.171588912770863,-5.414144246404392,0.0,0
1691,1.0882143762566074,2.8649165688557243,0.0,1
1692,-5.611118391304068,-1.6159504959582538,0.0,0
1693,4.597827207185876,-2.800609152445865,0.0,0
1694,-0.7055170522015302,0.03257294368868213,1.0,1
1695,-2.3710878086874634,-1.8150949048490355,0.0,0
1696,-0.8875175576205483,2.2490339848437078,1.0,1
1697,-0.5454795948544358,-0.6356541017200295,0.0,1
1698,0.23665602383041406,-3.927021060431831,0.0,0
1699,4.345550410605474,3.181667903202319,0.0,1
1700,3.857271857055027,3.1416520007950477,1.0,1
1701,-2.63433290119868,-2.146890664347832,0.0,0
1702,0.030833151498258715,-2.58642655949361,0.0,0
1703,2.0977778349580203,5.473130386360372,1.0,1
1704,1.1935373511598337,-2.5959042839481983,0.0,1
1705,2.931298305174325,-0.9896788637406746,0.0,0
1706,-1.573261686376871,0.9776775221138438,1.0,1
1707,2.1311309523384647,-2.857910356120673,0.0,0
1708,-2.1394924382589458,-1.3856292669553834,0.0,0
1709,3.991066734896605,1.1750217864390606,1.0,0
1710,-1.0079034412058583,0.8759737118648245,0.0,1
1711,3.802878580103747,1.010652061625036,1.0,1
1712,1.2787644233082975,2.61055534085211,1.0,1
1713,-2.3082698009588487,-2.882191561733597,0.0,0
1714,-5.169118624108735,-3.3614031771757196,0.0,0
1715,-2.834860712086133,-2.3233036582004205,0.0,0
1716,3.444887645263124,2.1515793345019985,1.0,1
1717,3.394218354367836,-0.9126928251163857,0.0,1
1718,1.4017769555782524,-4.656936305353647,0.0,0
1719,0.537968663034389,4.1139490880040555,1.0,1
1720,6.0919018148438235,7.716368518457037,1.0,1
1721,3.5930326337437677,2.685743900987082,1.0,1
1722,2.0801313064031777,3.4540917565658775,1.0,1
1723,-5.968283805274327,-0.08817610785473873,1.0,0
1724,-2.943302076143036,-4.814266906537639,0.0,0
1725,1.0434827259740387,-1.087619837085959,0.0,0
1726,-0.4705031420023644,-5.958484222653732,0.0,0
1727,-1.7538745234091442,-3.26774179287779,0.0,0
1728,2.127723478619348,6.050997909842317,1.0,1
1729,-4.143040971986916,0.6453695751374426,1.0,0
1730,-4.14543445568664,-1.451172182388408,1.0,0
1731,-8.349912665975854,-0.8098447224836349,1.0,0
1732,2.873814216417532,6.044299877689052,1.0,1
1733,3.391183242338335,4.319941565707835,0.0,1
1734,4.424030609388717,1.232530863096247,1.0,1
1735,0.9860687838677924,0.31758813725696,1.0,1
1736,-1.766242564641549,0.16295923834898574,1.0,0
1737,-5.045764112859246,-2.365003902491196,0.0,1
1738,2.3039990930019165,0.15563841702710768,0.0,0
1739,-0.9783090962225898,1.5416823074260915,1.0,1
1740,-1.269599353972002,-5.318322761427806,0.0,0
1741,2.075571230461334,2.5530856542456997,1.0,1
1742,3.712431773319696,-0.6477513371268127,0.0,1
1743,1.9895079599438452,2.334259238808697,1.0,1
1744,-0.7877599291949933,-1.1946927357164407,0.0,0
1745,5.209628894547222,4.374177318301326,1.0,1
1746,-0.9971618569371947,0.09434449534289424,1.0,0
1747,1.8782164661124008,4.158769392270816,1.0,1
1748,3.101733767773169,1.1674412288997171,1.0,1
1749,-6.219837593196188,-1.5470045860539998,0.0,0
1750,1.2034695694640583,-1.8588430669963905,0.0,1
1751,3.4016904938287347,0.48359021254354717,0.0,0
1752,-1.2470367148210175,0.8746677858362486,1.0,0
1753,-4.2251606525205805,-2.161964920955251,0.0,0
1754,-5.418664729396658,-0.3743187570844575,1.0,0
1755,2.592988306803399,0.1494784572303971,0.0,1
1756,-3.043377423869961,-1.6028261572638267,0.0,1
1757,-2.3959722118648306,-0.1082943065972708,1.0,0
1758,2.9963907139094896,-2.2485327078758837,0.0,0
1759,2.5037245900141674,-0.9027093988954702,1.0,0
1760,-1.3780426897459743,0.1355978216929854,1.0,1
1761,4.556037077525474,3.8426729624754525,1.0,1
1762,2.4933091548328905,-0.9709070765533845,0.0,0
1763,-2.331076852547534,-3.852889198025892,0.0,0
1764,-0.7107704403389694,-0.5604856452772489,0.0,1
1765,-7.58435133359438,-1.6036666806921245,1.0,0
1766,1.6046938583956802,-1.5756812604881145,0.0,1
1767,0.14892053137205208,-0.29071189919733187,0.0,0
1768,-10.24058657151577,-4.228278588316025,0.0,0
1769,3.1882944288070956,-3.829382268732482,0.0,0
1770,3.8904296868775834,2.054026972460285,1.0,1
1771,1.0848851169237168,2.6985929790466807,1.0,1
1772,2.8017174165485006,0.1542138824954553,1.0,0
1773,-6.080573899059458,-2.071616873158642,0.0,0
1774,2.923910911071117,4.280887615456281,1.0,1
1775,-1.8577815625044252,-1.0704867758875802,0.0,0
1776,3.3691365768941135,-0.07905726031983473,0.0,1
1777,-3.474985566370074,-3.486023009180459,0.0,0
1778,-4.923129123436995,-2.1463384086652018,0.0,0
1779,-4.588507852891267,-0.9106743079656732,1.0,0
1780,2.5259564634341287,2.9629765075943952,1.0,1
1781,-3.9155623682626914,-0.20741911415607128,1.0,0
1782,3.268288984971499,2.8487393422163705,1.0,1
1783,-0.417875460499082,0.024549177737988925,1.0,1
1784,3.5038570020796613,2.6425660853847077,1.0,1
1785,2.292499339146446,3.4130673734293637,1.0,1
1786,0.26303291897202463,1.8962921691374497,1.0,1
1787,-6.156098936953218,-3.1458169679997097,0.0,0
1788,-0.44573789203301417,-7.234429381914693,0.0,0
1789,-1.475954554998613,5.068804285814622,1.0,1
1790,0.49411625000852366,-1.8141900480770545,1.0,0
1791,-9.95967113479849,-3.012438249601657,0.0,0
1792,3.5211615697740553,1.0978346138940558,0.0,1
1793,-0.004582466395126383,-2.69428607917179,0.0,0
1794,1.2205681783355058,0.4873902472493119,1.0,1
1795,3.6415680497249685,1.473797807145589,0.0,1
1796,4.561242154331355,-0.89316031297008,0.0,0
1797,-3.9116595457062546,0.3489404309935318,1.0,0
1798,4.49756817480997,-0.6936832253228626,0.0,1
1799,0.7103821174741256,-1.3571346933336583,0.0,0
1800,-2.1883663395243014,-3.863381733500887,0.0,0
1801,1.508790512717536,2.9757136199216516,1.0,1
1802,-2.1249208720699926,-0.6865876148680632,1.0,0
1803,-3.9808331291036967,-3.4166524594156735,0.0,0
1804,-5.324286865585072,-1.6880819980697062,0.0,0
1805,-0.967078105169993,0.3634949535830496,0.0,0
1806,1.300907760799551,-3.173536207749395,0.0,1
1807,-0.250041190910806,-4.867965198005277,0.0,0
1808,-2.4857038359352304,4.698089251027619,1.0,1
1809,8.084573735269464,2.4728028855687882,1.0,1
1810,-6.373750956033423,-2.1240860943192,0.0,0
1811,-3.268252549386572,-4.318694302070028,0.0,1
1812,2.1446767005849243,3.027483286441011,1.0,1
1813,-4.5244489685085885,-2.6337536919525695,0.0,0
1814,1.574279071972577,2.311371989924847,1.0,1
1815,2.4205267591248405,-2.2258569850311796,0.0,1
1816,1.8160317543179691,-3.20458645625024,0.0,0
1817,-4.722282779592337,-0.25676155371654974,0.0,0
1818,5.147387660887945,0.25293564193451923,0.0,1
1819,7.621727811043191,6.090271401387863,0.0,1
1820,4.44128752611407,-0.18125805475137824,0.0,1
1821,2.7712626272975314,3.425791753925563,1.0,1
1822,0.2391855421538167,0.49249100916096933,1.0,1
1823,3.990277649046787,4.483336879897701,1.0,1
1824,0.34164339750575046,4.683903520039539,1.0,1
1825,0.7554090582408866,1.121287081679488,1.0,1
1826,3.8594905571738094,-5.69592510326869,1.0,0
1827,-2.1118783813950186,0.5093843855547133,0.0,0
1828,4.371025628584256,5.14162886007429,1.0,1
1829,-2.514135323388933,-0.9372375259751684,1.0,1
1830,5.4658203886623635,3.2331680480123666,0.0,1
1831,3.019480428814206,-0.3088613514086489,0.0,0
1832,-4.602674433766749,-4.04027581887497,0.0,0
1833,-2.3116915060397014,0.24208243501108218,1.0,0
1834,2.2376079034738856,3.535635665834275,1.0,1
1835,-4.201384718639957,-0.8939121742002898,0.0,0
1836,-1.9005410956658335,0.6753100986301326,1.0,1
1837,3.0282576269026107,2.101220359801727,0.0,1
1838,-1.4813807253600042,1.4167608794682685,1.0,0
1839,3.37109905147069,-0.6251236580399158,0.0,1
1840,3.8389618518546107,1.9329956619730078,1.0,1
1841,-0.10223212983654628,-1.461134873527636,0.0,0
1842,-5.199363303056548,-2.6114844802894943,0.0,0
1843,2.96621080241047,-5.853287655269926,0.0,0
1844,3.254217777940794,-0.3832296648892859,0.0,1
1845,4.093556112572754,3.562146665052687,1.0,1
1846,0.978024875631712,1.4782873085589738,0.0,1
1847,3.937796081723182,0.7171211016848109,1.0,1
1848,4.651781191005283,3.038452092637979,0.0,1
1849,4.347726192402723,3.7233176252149707,1.0,1
1850,5.03828871073101,2.598966947440832,1.0,1
1851,-1.6929357436257626,-1.1218717037090133,0.0,0
1852,-0.05572640591074007,-2.45108745619162,0.0,1
1853,-5.7672473886139795,-3.7659405245935647,0.0,0
1854,2.9192825835149825,0.7407720732257921,0.0,1
1855,-1.1617233571513168,-1.4936461415253885,1.0,0
1856,-0.20402655846656792,0.8082080599147665,1.0,1
1857,4.406342984244872,1.0967725405387103,0.0,0
1858,0.872075419546777,-4.437195997180499,0.0,0
1859,-0.04566956363244623,-3.376167635329794,0.0,1
1860,-2.6784160068811245,-2.311814292186692,0.0,0
1861,0.5382976822919878,6.456614331185722,1.0,1
1862,6.431141156171838,-2.078741189274437,1.0,0
1863,-1.3710270020843738,-2.4727742014793828,0.0,0
1864,-0.6620940189881392,1.1214153447583377,0.0,0
1865,0.5778745775848018,-0.9941895713564559,0.0,1
1866,-4.569565384669215,-3.6468413118577567,0.0,0
1867,0.30725465067788726,4.331452711473586,1.0,1
1868,5.009120032308848,5.931196272164623,1.0,1
1869,-1.0651081827093343,1.104498485576507,1.0,0
1870,2.2720630025654174,4.141687072116073,1.0,1
1871,0.4311031106302039,-1.0899259925281997,0.0,0
1872,-1.156628671414529,-1.286066801894759,1.0,0
1873,-5.92993094882884,-3.2369140854610077,0.0,0
1874,1.8104162770949432,2.835962084175941,1.0,1
1875,-3.294470177817575,-4.22192412467482,0.0,0
1876,1.4403624558789145,-2.468565974172437,0.0,0
1877,-2.324563789448658,-3.712871789854243,0.0,0
1878,2.9282777654350225,5.15827870704185,1.0,1
1879,-3.961202983182763,-2.1601691994882692,0.0,0
1880,1.9921027134067082,3.1109046138429197,1.0,1
1881,-1.649701230963852,-3.1427182432929888,0.0,0
1882,2.5270447285106963,-3.2256437480411995,0.0,0
1883,-1.944803757572158,-1.5776873701264973,0.0,0
1884,2.414014003034593,-1.4935007575286035,0.0,1
1885,-6.341656674017993,-5.714901249319681,0.0,0
1886,-0.8261500024408295,0.02865659375822771,0.0,0
1887,-0.005361021242771269,3.1016854135729255,1.0,1
1888,-4.906260439292934,-2.9441314118843476,0.0,0
1889,8.32481747012748,-2.6473302895988913,0.0,0
1890,1.300900503593966,-1.6236530919462269,0.0,0
1891,2.4250804954907803,-2.5174608068487814,0.0,1
1892,2.8355936453132973,1.0359322670594473,1.0,0
1893,-0.3745779414856627,-1.9566475658882658,0.0,1
1894,-1.2230106768661697,4.398962646160962,1.0,1
1895,3.6860322058723103,0.4730641893483196,0.0,0
1896,0.10032538587189666,-0.7782353007709935,0.0,1
1897,1.137374351262579,4.616578884296672,1.0,1
1898,-3.0196245487409747,-0.8431665287518724,1.0,0
1899,-0.20668076528280888,-0.1236714415660114,0.0,0
1900,0.8155133155622374,-2.625542166948299,0.0,0
1901,-1.5746743380872843,-1.718706150917922,0.0,0
1902,-4.219215084849587,-4.485468668265815,0.0,0
1903,1.8593128352905959,-2.988640228856981,0.0,0
1904,2.8096517495581548,-0.5875136851532639,0.0,1
1905,-1.108656866157283,-4.378861692941639,0.0,0
1906,1.5651540787770244,1.4346225107651565,1.0,1
1907,-3.961832141253306,-1.6668244824781948,1.0,0
1908,-0.40014664356775254,-0.4144423816079301,0.0,0
1909,2.216280047782457,2.1566767682343704,0.0,1
1910,6.564317877135657,-1.0071223636967628,0.0,1
1911,0.9176529253430465,2.270874435729312,1.0,1
1912,2.432205401931767,0.47932896714686324,0.0,1
1913,-1.8280366286813283,-1.168109035632661,0.0,0
1914,2.1444333987224686,-3.023264361467362,0.0,0
1915,-1.3655390861655168,-3.179904268683207,1.0,0
1916,2.279872057072974,1.8827233107185266,0.0,1
1917,2.1611692907908737,1.8567178447047668,0.0,1
1918,0.10000069499546105,2.8980895961928645,1.0,1
1919,-6.873866969412331,-1.020272067491533,0.0,0
1920,-0.04741892206021214,1.7797223581382202,1.0,1
1921,0.3881258065195268,1.0390068286661711,1.0,1
1922,-1.6168092685224116,-2.7322519115187007,0.0,0
1923,6.194982942491657,2.017043146455933,0.0,1
1924,-2.5863753702497014,-2.0907211217942177,0.0,0
1925,0.1398793711914572,2.1521482532800156,1.0,1
1926,-3.7234394997490887,-1.634614793845374,0.0,0
1927,2.6707228348284904,2.6459846486175036,1.0,1
1928,3.0739573543343703,-0.8594485042778377,1.0,1
1929,-0.9208846858471735,-1.4132881097894878,0.0,0
1930,-0.03586131696578576,-2.770586657194556,0.0,0
1931,-0.12327764299500199,3.126858932270286,1.0,1
1932,-4.685857039044285,0.2551967728022686,1.0,0
1933,-5.008629672260302,0.786861025757549,1.0,0
1934,-7.544624831775425,-3.7504097374753527,0.0,0
1935,-5.669419736267993,0.21969362315508123,1.0,0
1936,2.8233452255502907,6.696165130004041,1.0,1
1937,1.9064111760491025,3.664737331376608,1.0,1
1938,0.5932609474239383,-1.0006184132275917,0.0,0
1939,2.3538926418310018,6.24422668466331,1.0,1
1940,-0.8322357515118601,2.7316127074251506,1.0,1
1941,-0.12239945583785916,-2.9718680211560704,0.0,0
1942,1.5752642203942167,1.3990004019125644,1.0,1
1943,-6.813160768570675,0.1640435150476156,1.0,0
1944,-5.972253027358642,-2.0470853113010934,0.0,0
1945,-2.769839258613551,-2.894404415328836,0.0,0
1946,2.69228855525126,3.095434568457627,1.0,1
1947,-5.075577329952305,-3.8127987850834413,0.0,0
1948,0.4916187473282765,1.8213198460807587,1.0,0
1949,-1.7519086657858889,-2.776676145578753,0.0,0
1950,-3.1494886804853954,-0.47905599524690845,1.0,0
1951,2.0937379130295737,4.15256187258879,1.0,1
1952,0.804367836921807,2.9893130429168395,0.0,1
1953,7.4905445046983425,5.335302184523288,0.0,1
1954,0.5162867927932779,3.7243936490405325,1.0,1
1955,-1.3629369554290363,-2.4685884294018976,0.0,1
1956,1.6012347685439114,1.2887257533500969,1.0,0
1957,-2.175941944182985,-3.7389872280645293,0.0,0
1958,-3.485186854568928,1.2539989616952192,1.0,0
1959,-5.89559234322147,-2.2498251777409077,0.0,0
1960,2.4774492537567863,1.0203461801133007,1.0,1
1961,-10.790248013041072,-0.7909263435231599,1.0,0
1962,2.350802748033872,2.22102658323507,1.0,0
1963,4.0915219896797606,3.604870941434933,1.0,1
1964,-8.31923761320557,-3.3710128973241655,0.0,0
1965,-5.049163314062607,0.2656038417020832,1.0,0
1966,3.2110093850901884,3.3400334248820096,1.0,1
1967,-2.7650845296628552,-4.026711991748621,0.0,0
1968,2.132501183304322,3.656135602028497,1.0,1
1969,0.623301186938209,0.8134705323813789,0.0,1
1970,1.8509490854993431,-1.8384797412646203,0.0,0
1971,-0.862870095644859,-2.118671673521424,0.0,0
1972,0.5607841660255757,-1.2905993243978147,0.0,1
1973,-5.5135234101972275,-0.9878506848623978,0.0,0
1974,4.93302529729233,1.0093668696655582,1.0,1
1975,3.3340849150564202,2.5936481563065694,1.0,1
1976,3.0205894047135216,4.112853125375473,1.0,1
1977,-2.3649743027730814,-3.1595607358352544,0.0,0
1978,0.826855526234604,-4.261798683580257,1.0,0
1979,0.3952070691537999,2.818031317239201,1.0,1
1980,-1.2033267240287802,-0.4200087316517396,0.0,0
1981,-3.984546920606072,-0.74208619469742,1.0,0
1982,-4.773173972466582,0.34994452018897615,1.0,0
1983,3.132674642106485,3.432662224395831,1.0,1
1984,0.8205363728538821,-0.6794833330479513,1.0,1
1985,1.3800224011514959,-1.1688437889940917,0.0,1
1986,2.6318198818028558,1.5193695754290513,1.0,1
1987,-0.9349689903646186,-2.43892985134051,0.0,0
1988,0.345998779043996,6.703493512896856,1.0,1
1989,-2.117967096262798,-0.9610605239043961,0.0,1
1990,-1.310892798602413,1.4558214563688345,1.0,0
1991,-9.158373245300455,-4.165429911398479,0.0,0
1992,2.71851244176662,0.9605914998305587,1.0,1
1993,1.0402708930152258,1.4086316313800507,0.0,1
1994,-6.717658816372621,-2.223672500266967,1.0,0
1995,-0.8953234167768853,-2.6286635952464437,0.0,0
1996,2.4472405158375317,5.135233659881173,1.0,1
1997,1.42083372275976,0.7426276276829933,0.0,0
1998,2.200629323526124,-2.9397427541480114,0.0,1
1999,1.7959131292962927,0.1872346025727729,0.0,1
